<?xml version="1.0"?>
<opencv_storage>
<opencv_ml_svm>
  <format>3</format>
  <svmType>C_SVC</svmType>
  <kernel>
    <type>LINEAR</type></kernel>
  <C>1.</C>
  <term_criteria><iterations>100</iterations></term_criteria>
  <var_count>64</var_count>
  <class_count>14</class_count>
  <class_labels type_id="opencv-matrix">
    <rows>14</rows>
    <cols>1</cols>
    <dt>i</dt>
    <data>
      0 1 2 3 4 5 6 7 8 9 10 11 12 13</data></class_labels>
  <sv_total>91</sv_total>
  <support_vectors>
    <_>
      0. 2.29580037e-04 -1.35047085e-05 -2.70094170e-05 -1.35047085e-05
      6.75235424e-06 0. -1.14790018e-04 6.75235424e-06 7.02244812e-04
      3.84884188e-04 1.08037668e-04 -5.73950121e-04 -3.44370055e-04
      -1.35047085e-05 -1.28294720e-04 -6.75235424e-06 6.68483030e-04
      4.45655372e-04 9.45329593e-05 -9.45329550e-04 -6.88740110e-04
      -4.72664797e-05 2.02570627e-05 0. 7.02244812e-04 4.18645941e-04
      6.75235424e-05 -9.85843712e-04 -7.29254214e-04 -8.10282509e-05
      6.75235424e-06 -6.75235424e-06 6.61730708e-04 4.18645941e-04
      1.01285310e-04 -9.45329550e-04 -7.08997191e-04 -9.45329593e-05
      2.70094170e-05 1.35047085e-05 6.75235409e-04 4.52407723e-04
      1.21542376e-04 -9.65586631e-04 -7.22501893e-04 -8.10282509e-05
      -2.02570627e-05 0. 6.75235409e-04 7.42758915e-04 4.52407723e-04
      -6.14464225e-04 -3.71379458e-04 -3.37617712e-05 -1.35047085e-04
      -6.75235424e-06 4.18645941e-04 8.10282480e-04 8.98063066e-04
      -7.42758930e-05 -1.55304137e-04 -3.44370055e-04 -6.41473627e-04</_>
    <_>
      0. 1.99986007e-05 9.99930035e-06 0. 9.99930035e-06 1.99986007e-05
      -9.99930035e-06 0. 1.99986007e-05 9.99930035e-06 5.99958003e-05
      -6.99950979e-05 -2.19984606e-04 -2.09985301e-04 -1.99986007e-05
      9.99930035e-06 -9.99930035e-06 4.79966402e-04 4.29969892e-04
      1.59988806e-04 -2.09985301e-04 -3.89972702e-04 -1.09992303e-04
      9.99930035e-06 -9.99930035e-06 1.16991811e-03 5.59960783e-04
      1.99986007e-05 -5.39962202e-04 -8.19942623e-04 -7.99944028e-05
      4.79966402e-04 0. 1.20991527e-03 3.19977611e-04 -6.89951703e-04
      -1.22991391e-03 -8.69939104e-04 5.29962883e-04 1.41990057e-03
      9.99930035e-06 8.69939104e-04 -3.59974802e-04 -1.16991811e-03
      -1.04992650e-03 -1.09992303e-04 1.19991601e-03 1.39990204e-03
      -9.99930035e-06 9.99930035e-06 -3.19977611e-04 -5.09964302e-04
      -2.49982491e-04 3.59974802e-04 8.39941204e-04 7.09950284e-04
      9.99930035e-06 -3.89972702e-04 -2.09985301e-04 -5.99958003e-05
      -1.99986007e-05 -1.29990905e-04 -4.39969212e-04 -8.99937004e-04</_>
    <_>
      0. 1.93141550e-05 -1.93141550e-05 0. 1.93141550e-05 3.86283100e-05
      0. -2.51084013e-04 3.86283100e-05 9.65707732e-05 2.31769853e-04
      1.54513240e-04 -7.72566200e-05 -1.54513240e-04 5.79424632e-05
      -2.31769853e-04 -3.86283100e-05 1.73827389e-03 9.46393586e-04
      1.15884926e-04 -4.44225559e-04 -5.79424610e-04 3.86283100e-05
      5.79424632e-05 1.93141550e-05 2.41426937e-03 1.35199080e-04
      -1.56444649e-03 -2.14387104e-03 -1.71895977e-03 5.79424632e-05
      1.29404839e-03 0. 2.35632691e-03 3.47654772e-04 -1.10090675e-03
      -1.66101730e-03 -1.44856155e-03 -1.35199080e-04 6.37367077e-04
      1.93141550e-05 1.64170307e-03 9.07765236e-04 1.54513240e-04
      -2.89712305e-04 -2.51084013e-04 3.28340626e-04 0. -3.86283100e-05
      -1.93141550e-05 4.05597239e-04 2.70398159e-04 1.93141550e-05
      3.86283100e-05 7.72566200e-05 -1.73827386e-04 0. -5.79424632e-05
      -3.86283100e-05 0. -3.86283100e-05 -1.35199080e-04 -2.51084013e-04
      -2.51084013e-04</_>
    <_>
      0. 2.45820353e-04 2.22953327e-04 5.14507701e-05 -1.71502561e-05
      -1.14335044e-05 1.31485300e-04 1.37202049e-04 -5.71675218e-06
      7.54611276e-04 3.14421370e-04 -3.71588889e-04 -5.08790952e-04
      -3.08704621e-04 4.17322910e-04 6.34559488e-04 5.71675218e-06
      5.37374697e-04 -3.48721864e-04 -6.45992986e-04 -7.66044774e-04
      -6.11692492e-04 3.77305638e-04 7.48894527e-04 -1.71502561e-05
      5.71675191e-05 -4.05889412e-04 -2.22953327e-04 -7.48894527e-04
      -6.05975743e-04 3.48721864e-04 7.60328025e-04 0. -5.71675191e-05
      5.71675191e-05 -8.00345297e-05 -7.43177778e-04 -6.00258994e-04
      2.85837596e-04 6.40276237e-04 0. -6.86010244e-05 -2.68687349e-04
      -5.43091446e-04 -7.77478272e-04 -5.94542245e-04 5.71675218e-06
      2.85837596e-04 -5.71675218e-06 5.08790952e-04 4.28756408e-04
      1.54352310e-04 -4.63056931e-04 -2.85837596e-04 2.85837596e-04
      4.91640705e-04 -5.71675218e-06 4.85923927e-04 6.45992986e-04
      7.48894527e-04 2.28670087e-05 -1.08618289e-04 1.42918798e-04
      2.17236578e-04</_>
    <_>
      3.29893592e-05 7.54378270e-05 8.88742143e-05 1.04349463e-04
      1.33261099e-04 1.68289320e-04 6.06977665e-05 -2.00443043e-04
      -2.44663224e-05 5.66200470e-05 -2.31761136e-04 -3.44266038e-04
      -1.50040025e-04 4.29964421e-04 1.43004034e-03 1.23581430e-03
      -2.65051840e-05 1.46396151e-05 -6.03167107e-04 -9.48168337e-04
      -9.99507494e-04 -2.59837136e-04 1.75308215e-03 2.28582532e-03
      -6.35722608e-05 1.34363881e-05 -1.16315053e-03 -1.98103278e-03
      -2.21927813e-03 -1.50638004e-03 3.40389204e-04 1.09830883e-03
      -4.91335368e-06 9.91251552e-04 9.47899098e-05 -4.24149184e-04
      -6.41738763e-04 -6.17640035e-04 3.43934771e-05 3.19633022e-04
      1.75141085e-05 1.78032252e-03 9.60033911e-04 2.22770061e-04
      -1.39478128e-04 -1.62741228e-04 2.36306892e-04 1.80622927e-04
      -4.91335368e-06 2.20598686e-05 7.38670060e-05 -1.27411666e-04
      -2.92926939e-04 -1.59766292e-04 1.63476419e-04 3.07538539e-06
      -3.38249920e-05 8.50636425e-05 2.19594240e-05 7.31980754e-06
      -2.19594240e-05 1.11303807e-05 1.19925164e-04 4.94006854e-05</_>
    <_>
      1.97419722e-05 5.92259166e-05 0. -1.97419722e-05 1.97419722e-05
      9.87098610e-05 7.89678888e-05 2.96129583e-04 -1.97419722e-05
      1.57935778e-04 -2.56645639e-04 -2.76387611e-04 9.87098610e-05
      8.68646777e-04 1.91497128e-03 2.03342317e-03 1.97419722e-05
      -1.97419722e-05 0. -4.54065361e-04 -7.69936945e-04 3.94839444e-05
      2.09264900e-03 2.68490822e-03 -5.92259166e-05 5.92259166e-05
      -1.12529239e-03 -2.11239094e-03 -2.52697244e-03 -1.85574545e-03
      1.57935778e-04 1.00684061e-03 0. -7.89678888e-05 -1.57935778e-04
      -2.17161694e-04 -5.33033279e-04 -6.90969056e-04 -3.94839444e-05
      3.94839444e-05 1.97419722e-05 -7.89678888e-05 2.96129583e-04
      1.18451833e-04 -2.96129583e-04 -1.97419722e-04 5.33033279e-04
      -5.92259166e-05 0. 0. -1.18451833e-04 -1.18451833e-04
      -3.94839444e-05 3.94839444e-05 5.92259166e-05 -1.57935778e-04
      -3.94839444e-05 3.55355500e-04 1.57935778e-04 -3.94839444e-05
      -1.18451833e-04 -1.18451833e-04 -1.77677750e-04 -9.87098610e-05</_>
    <_>
      -5.59151204e-06 3.91405847e-05 2.79575597e-05 1.67745366e-05
      2.23660481e-05 2.79575597e-05 0. -1.00647216e-04 5.59151204e-06
      4.92053048e-04 3.52265255e-04 9.50557078e-05 -5.59151204e-06
      2.79575597e-05 1.67745366e-05 -3.91405847e-05 0. 6.87755994e-04
      3.85814346e-04 -2.79575597e-05 -4.19363409e-04 -4.80870047e-04
      1.11830239e-04 5.03236079e-04 -5.59151204e-06 6.98939024e-04
      3.46673740e-04 -3.18716193e-04 -7.32488057e-04 -4.58503986e-04
      4.86461562e-04 7.32488057e-04 0. 6.31840841e-04 3.91405847e-05
      -5.42376656e-04 -7.04530510e-04 -2.34843508e-04 7.26896571e-04
      8.21952301e-04 5.59151204e-06 5.87108778e-04 -1.23013262e-04
      -6.31840841e-04 -6.26249355e-04 -8.94641926e-05 7.43671088e-04
      7.93994695e-04 5.59151204e-06 5.53559687e-04 -5.59151204e-06
      -4.19363409e-04 -2.62801070e-04 2.96350132e-04 7.71628693e-04
      7.04530510e-04 -1.67745366e-05 3.41082225e-04 6.15066310e-05
      -2.23660481e-05 2.18068977e-04 5.03236079e-04 5.08827623e-04
      2.46026524e-04</_>
    <_>
      -2.67415435e-05 5.34830870e-05 2.67415435e-05 8.02246286e-05
      5.34830870e-05 2.67415435e-05 2.67415435e-05 -2.40673893e-04
      2.67415435e-05 0. -2.94156984e-04 -1.06966174e-04 8.02246286e-05
      2.67415435e-05 -8.02246286e-05 -1.87190803e-04 0. -5.34830870e-05
      -1.01617863e-03 -8.82470922e-04 -5.88313967e-04 -6.15055498e-04
      -2.13932348e-04 5.34830870e-05 2.67415435e-05 4.27864696e-04
      -1.95213268e-03 -2.99505284e-03 -3.10201896e-03 -2.37999740e-03
      2.67415435e-05 1.68471725e-03 -2.67415435e-05 0. -1.68471725e-03
      -2.21954798e-03 -2.32651434e-03 -1.95213268e-03 -1.06966174e-04
      8.28987861e-04 0. 0. -1.87190803e-04 -1.87190803e-04
      -2.40673893e-04 -8.02246286e-05 4.81347786e-04 8.02246286e-05
      2.67415435e-05 -8.02246286e-05 1.87190803e-04 2.13932348e-04
      3.20898514e-04 4.54606226e-04 1.33707712e-04 -4.81347786e-04
      -2.67415435e-05 -1.60449257e-04 -8.02246286e-05 0. -5.34830870e-05
      -2.40673893e-04 -3.74381605e-04 -8.02246272e-04</_>
    <_>
      2.90490789e-05 0. -2.90490789e-05 2.90490789e-05 0.
      -2.90490789e-05 8.71472366e-05 1.16196316e-04 2.90490789e-05
      1.16196316e-04 -5.80981578e-05 0. -8.71472366e-05 -2.32392631e-04
      5.80981578e-05 2.03343545e-04 -2.90490789e-05 0. 1.45245387e-04
      2.90490789e-05 -5.80981578e-05 -8.71472366e-05 -1.45245387e-04
      5.80981578e-05 -5.80981578e-05 1.16196316e-04 -4.35736176e-04
      -3.19539860e-04 -2.03343545e-04 -3.77638033e-04 -2.32392631e-04
      -2.90490789e-05 0. 3.48588947e-04 -2.23677908e-03 -3.51493852e-03
      -3.57303675e-03 -2.55631888e-03 -2.90490774e-04 2.90490789e-05
      2.90490789e-05 2.73061334e-03 6.39079721e-04 -9.58619581e-04
      -1.19101221e-03 -7.26226950e-04 -1.74294473e-04 -5.80981578e-05
      -2.90490789e-05 2.20772997e-03 1.80104282e-03 5.51932491e-04
      -3.48588947e-04 -4.64785262e-04 -2.90490789e-05 3.77638033e-04
      2.90490789e-05 -4.93834319e-04 -2.32392631e-04 -5.80981578e-05
      1.16196316e-04 2.90490774e-04 4.06687090e-04 4.93834319e-04</_>
    <_>
      -7.29871090e-06 2.48156168e-04 2.91948440e-04 2.55454885e-04
      2.48156168e-04 2.84649723e-04 2.84649723e-04 1.67870341e-04
      -7.29871090e-06 7.51767191e-04 5.98494255e-04 2.77351006e-04
      1.97065194e-04 4.59818781e-04 8.53949168e-04 7.37169757e-04
      -7.29871090e-06 7.29871041e-04 3.21143278e-04 -8.02858194e-05
      -1.97065194e-04 9.48832385e-05 7.95559492e-04 8.75845260e-04
      -2.18961322e-05 7.44468474e-04 2.77351006e-04 -1.24078084e-04
      -2.18961315e-04 7.29871099e-05 7.73663342e-04 8.75845260e-04
      -2.18961322e-05 3.72234237e-04 -5.98494255e-04 -9.48832370e-04
      -1.02911820e-03 -7.59065908e-04 8.02858194e-05 3.21143278e-04
      -1.45974218e-05 3.72234237e-04 -5.47403295e-04 -9.12338845e-04
      -1.02181954e-03 -7.44468474e-04 1.16779374e-04 2.91948440e-04
      -2.91948436e-05 3.72234237e-04 -2.33558749e-04 -5.54702012e-04
      -6.34987839e-04 -3.57636833e-04 1.67870341e-04 1.67870341e-04
      -2.91948436e-05 1.02181948e-04 -1.60571639e-04 -7.29871099e-05
      -6.56883931e-05 -1.38675503e-04 -1.82467760e-04 -3.94130388e-04</_>
    <_>
      1.15073472e-05 3.79742472e-04 4.02757170e-04 4.02757170e-04
      4.25771868e-04 4.83308599e-04 4.14264505e-04 1.84117554e-04
      1.15073472e-05 9.89631866e-04 4.14264505e-04 -1.15073472e-05
      -1.26580824e-04 1.61102871e-04 9.55109834e-04 8.97573074e-04 0.
      6.55918790e-04 -7.47977581e-04 -1.24279351e-03 -1.46143313e-03
      -1.31183758e-03 3.33713077e-04 8.28529010e-04 -3.45220433e-05
      1.00113917e-03 0. -3.68235109e-04 -6.67426153e-04 -1.09319796e-03
      2.30146950e-04 5.40845329e-04 0. 1.05867593e-03 1.95624903e-04
      -1.03566126e-04 -4.25771868e-04 -1.03566132e-03 1.95624903e-04
      5.17830660e-04 3.45220433e-05 1.11621269e-03 3.79742472e-04
      -2.30146943e-05 -4.02757170e-04 -1.01264659e-03 2.87683681e-04
      5.29337965e-04 -2.30146943e-05 8.97573074e-04 3.68235109e-04
      1.61102871e-04 -9.20587772e-05 -4.25771868e-04 5.98382088e-04
      7.24962912e-04 -4.60293886e-05 3.22205742e-04 1.38088173e-04
      6.55918790e-04 6.09889394e-04 -1.03566126e-04 1.95624903e-04
      1.03566126e-04</_>
    <_>
      5.46434649e-06 1.91252126e-04 -2.73217320e-05 -3.82504259e-05
      2.29502548e-04 2.45895586e-04 2.67752970e-04 1.74859088e-04
      5.46434649e-06 5.68292046e-04 -2.02180818e-04 -4.26219020e-04
      2.40431240e-04 4.26219020e-04 7.86865887e-04 6.93971990e-04 0.
      5.46434661e-04 -4.15290328e-04 -6.99436350e-04 -6.01078100e-05
      1.47537357e-04 7.10365071e-04 7.65008503e-04 -5.46434649e-06
      5.62827685e-04 -4.26219020e-04 -7.10365071e-04 -7.65008517e-05
      1.31144319e-04 5.35505940e-04 6.06542453e-04 -5.46434649e-06
      5.35505940e-04 -4.53540764e-04 -7.10365071e-04 -5.84685069e-04
      -3.93432943e-04 -2.73217320e-05 7.10365057e-05 5.46434649e-06
      5.40970301e-04 -4.26219020e-04 -6.93971990e-04 -6.66650245e-04
      -4.69933788e-04 -4.37147719e-05 5.46434649e-06 -5.46434649e-06
      5.40970301e-04 -2.13109510e-04 -4.48076404e-04 1.25679973e-04
      3.22396430e-04 2.56824278e-04 1.74859088e-04 0. 3.44253844e-04
      -1.53001703e-04 -8.19651978e-05 6.33864198e-04 5.68292046e-04
      4.75398148e-04 2.34966894e-04</_>
    <_>
      7.23696348e-06 2.53293721e-04 2.82241585e-04 2.67767638e-04
      2.53293721e-04 2.75004626e-04 2.60530680e-04 1.37502313e-04
      7.23696348e-06 7.52644206e-04 5.86194044e-04 2.89478543e-04
      2.02634983e-04 4.48691746e-04 8.25013849e-04 7.01985438e-04
      7.23696348e-06 7.30933330e-04 3.11189418e-04 -6.51326700e-05
      -1.88161051e-04 8.68435600e-05 7.67118123e-04 8.39487766e-04
      -7.23696348e-06 7.45407247e-04 2.67767638e-04 -1.08554450e-04
      -2.09871941e-04 6.51326700e-05 7.45407247e-04 8.39487766e-04 0.
      7.16459414e-04 2.38819790e-04 -1.01317491e-04 -1.01317489e-03
      -7.59881164e-04 -9.40805257e-05 3.61848179e-05 7.23696348e-06
      7.16459414e-04 2.89478543e-04 -6.51326700e-05 -1.00593793e-03
      -7.45407247e-04 -5.78957079e-05 7.23696348e-06 -7.23696348e-06
      7.16459414e-04 6.00667961e-04 2.89478543e-04 -6.22378837e-04
      -3.61848186e-04 -7.23696348e-06 -1.15791416e-04 -7.23696348e-06
      4.48691746e-04 6.73037604e-04 7.67118123e-04 -5.78957079e-05
      -1.44739271e-04 -3.54611198e-04 -6.73037604e-04</_>
    <_>
      0. -2.23903829e-04 2.09909849e-05 2.79879787e-05 2.09909849e-05
      6.99699467e-06 -6.99699467e-06 1.18948912e-04 6.99699467e-06
      -7.20690470e-04 -3.56846722e-04 -1.60930882e-04 4.40810662e-04
      2.09909849e-04 0. 1.39939890e-04 0. -3.56846722e-04
      -1.60930882e-04 1.39939893e-05 8.32642370e-04 4.40810662e-04
      -2.79879787e-05 -1.39939893e-05 -6.99699467e-06 9.09609298e-05
      -4.19819698e-05 -5.59759574e-05 6.43723528e-04 1.81921860e-04
      2.79879787e-05 3.28858761e-04 6.99699467e-06 1.60930882e-04
      -2.09909849e-04 -5.87747549e-04 1.18948912e-04 1.25945910e-04
      4.68798651e-04 9.65585292e-04 -6.99699467e-06 -9.09609298e-05
      -7.20690470e-04 -9.44594271e-04 2.65885814e-04 6.71711517e-04
      9.23603307e-04 1.00057025e-03 -6.99699467e-06 -6.92702481e-04
      -9.93573223e-04 -8.25645402e-04 4.61801654e-04 6.36726501e-04
      6.22732565e-04 6.36726501e-04 1.39939893e-05 -7.06696475e-04
      -9.86576313e-04 -9.72582260e-04 6.29729548e-05 6.99699449e-05
      4.89789636e-05 3.49849724e-05</_>
    <_>
      0. -3.74650903e-04 1.13530577e-05 4.54122310e-05 3.40591723e-05
      1.13530577e-05 0. 4.54122310e-05 1.13530577e-05 -1.12395268e-03
      -5.10887592e-04 -9.08244619e-05 9.19597631e-04 4.88181453e-04
      5.67652860e-05 7.94713997e-05 -1.13530577e-05 -1.02177517e-04
      -1.93001979e-04 -9.08244619e-05 1.32830767e-03 8.17420136e-04
      1.02177517e-04 0. 1.13530577e-05 2.38414199e-04 -6.24418142e-04
      -1.03312824e-03 3.97357013e-04 2.15708089e-04 1.70295854e-04
      7.49301806e-04 1.13530577e-05 2.72473379e-04 -4.99534537e-04
      -8.17420136e-04 6.13065087e-04 3.40591709e-04 7.94713997e-05
      3.29238654e-04 -1.13530577e-05 -1.70295854e-04 -2.27061144e-04
      -1.13530572e-04 1.45319139e-03 1.06718740e-03 3.29238654e-04
      3.40591723e-05 -2.27061155e-05 -1.14665879e-03 -1.01042213e-03
      -6.01712032e-04 1.04448129e-03 6.47124252e-04 1.02177517e-04
      1.24883634e-04 1.13530577e-05 -7.37948751e-04 -1.38507294e-03
      -1.50995667e-03 1.02177517e-04 1.81648924e-04 4.31416178e-04
      9.30950686e-04</_>
    <_>
      0. 7.08460575e-05 3.22743173e-04 1.02333193e-04 -7.87178396e-06
      -2.36153537e-05 1.81051044e-04 3.22743173e-04 -1.57435679e-05
      2.20409958e-04 -1.57435679e-05 -6.37614517e-04 -3.14871359e-05
      -2.36153537e-05 5.90383832e-04 1.02333201e-03 1.57435679e-05
      -3.93589216e-05 -9.99716576e-04 -9.99716576e-04 4.72307074e-05
      -3.93589216e-05 5.74640231e-04 1.00758835e-03 -2.36153537e-05
      -7.39947718e-04 -1.04694732e-03 -3.85717431e-04 1.18076765e-04
      1.57435679e-05 5.74640231e-04 1.03907555e-03 7.87178396e-06
      -8.50152690e-04 -4.09332773e-04 -2.28281744e-04 7.87178433e-05 0.
      5.03794174e-04 8.50152690e-04 -1.57435679e-05 -8.81639833e-04
      -8.97383434e-04 -8.89511663e-04 5.51024896e-05 2.36153537e-05
      1.02333193e-04 4.17204574e-04 -7.87178396e-06 -8.65896291e-05
      -2.75512459e-04 -3.14871373e-04 7.87178433e-05 3.93589216e-05
      4.32948145e-04 8.34409148e-04 0. 1.81051044e-04 -5.51024896e-05
      -1.57435679e-05 1.18076765e-04 3.14871359e-05 5.98255603e-04
      1.04694732e-03</_>
    <_>
      1.20164732e-05 -1.68586557e-04 8.31653233e-05 1.02082369e-04
      9.67283486e-05 8.98277722e-05 2.78404186e-05 1.77264264e-05
      -2.83166664e-05 -6.93388574e-04 -4.86609497e-04 -2.85304763e-04
      4.63644363e-04 4.58528462e-04 5.74294187e-04 6.39612728e-04
      -1.63001932e-05 -6.87202381e-04 -6.71496266e-04 -4.54485358e-04
      5.80124441e-04 6.11296098e-04 7.56684400e-04 8.92673037e-04
      -3.87865875e-05 -7.14328431e-04 -8.39012500e-04 -8.08317098e-04
      1.86079880e-04 2.52827187e-04 3.38609389e-04 5.16119297e-04
      -5.83027122e-06 -3.39677179e-04 -4.37593641e-04 -3.31468182e-04
      6.15098514e-04 4.11532877e-04 1.85723940e-04 2.26891774e-04
      -6.90057368e-06 8.44712395e-06 -7.72147396e-05 -4.72337124e-05
      8.56262690e-04 5.79049112e-04 2.05352859e-04 1.70376254e-04
      -1.27308449e-05 -6.53887633e-04 -6.69114990e-04 -4.81135183e-04
      4.81135183e-04 2.73403595e-04 1.60738506e-04 2.33433908e-04
      -1.42773952e-05 -4.20817203e-04 -8.34137260e-04 -9.19799088e-04
      8.19747074e-05 2.19036199e-04 4.73763357e-04 7.24086480e-04</_>
    <_>
      6.14669716e-06 -1.90547609e-04 1.22933943e-05 1.84400906e-05
      1.84400906e-05 2.45867886e-05 2.45867886e-05 1.96694309e-04
      -1.22933943e-05 -5.90082898e-04 -4.30268788e-04 -1.84400909e-04
      5.53202757e-04 5.83936227e-04 6.08523027e-04 7.49897037e-04
      1.22933943e-05 -6.14669698e-04 -4.05682018e-04 -2.27427794e-04
      6.20816427e-04 6.39256497e-04 6.94576767e-04 8.17510707e-04
      -1.84400906e-05 -6.20816427e-04 -7.31456967e-04 -7.19163567e-04
      1.10640547e-04 8.60537621e-05 1.22933940e-04 3.07334849e-04
      6.14669716e-06 -6.26963098e-04 -4.30268788e-04 -1.59814124e-04
      6.94576767e-04 4.30268788e-04 7.37603623e-05 -1.22933943e-05
      -6.14669716e-06 -6.39256497e-04 -3.19628249e-04 -7.37603623e-05
      7.86777236e-04 5.96229627e-04 2.39721179e-04 0. 0. -6.14669698e-04
      -7.13016838e-04 -4.48708888e-04 5.47056028e-04 3.50361719e-04
      4.91735773e-05 7.37603623e-05 -6.14669716e-06 -2.70454679e-04
      -6.88430096e-04 -8.29804107e-04 3.07334849e-05 1.04493847e-04
      2.58161279e-04 5.53202757e-04</_>
    <_>
      -5.42593580e-06 -1.46500272e-04 3.79815501e-05 3.79815501e-05
      3.25556175e-05 2.17037432e-05 0. -5.42593580e-06 0.
      -8.68149727e-05 3.25556175e-05 5.42593580e-06 4.55778616e-04
      3.03852401e-04 2.71296794e-05 6.51112350e-05 5.42593580e-06
      1.30222470e-04 1.62778088e-05 -1.03092782e-04 3.52685835e-04
      8.68149727e-05 1.46500272e-04 4.72056417e-04 -5.42593580e-06
      1.13944654e-04 0. -3.63537722e-04 8.13890365e-05 1.41074343e-04
      5.37167653e-04 7.05371669e-04 5.42593580e-06 8.13890365e-05
      -2.98426487e-04 -6.07704802e-04 7.59631002e-05 3.41833977e-04
      7.81334762e-04 7.75908818e-04 -5.42593580e-06 2.71296794e-05
      -4.82908305e-04 -7.10797613e-04 1.68204017e-04 4.93760162e-04
      7.86760706e-04 7.86760706e-04 5.42593580e-06 -5.42593580e-06
      -6.02278917e-04 -7.70482933e-04 2.38741181e-04 5.86001086e-04
      7.75908818e-04 7.92186649e-04 -1.08518716e-05 -5.42593580e-06
      -5.91427030e-04 -7.43353216e-04 2.71296798e-04 6.13130745e-04
      7.70482933e-04 7.54205103e-04</_>
    <_>
      -6.98477652e-06 -2.23512849e-04 2.09543305e-05 4.88934384e-05
      2.79391061e-05 0. 6.98477652e-06 5.58782122e-05 0. -7.26416765e-04
      -4.74964821e-04 -1.39695534e-04 6.14660326e-04 3.63208383e-04
      -6.98477652e-06 8.38173219e-05 6.98477652e-06 -7.05462473e-04
      -7.26416765e-04 -3.28284514e-04 8.24203657e-04 5.51797333e-04
      -6.98477652e-06 -6.98477652e-06 6.98477652e-06 -6.14660326e-04
      -9.42944840e-04 -8.52142752e-04 2.09543301e-04 1.32710760e-04
      9.08020957e-05 4.33056150e-04 0. -6.84508123e-04 -8.73097102e-04
      -6.84508123e-04 3.70193156e-04 2.23512849e-04 6.98477670e-05
      1.88588965e-04 -1.39695530e-05 -6.98477670e-04 -5.16873493e-04
      -1.74619418e-04 9.35960095e-04 7.26416765e-04 2.09543301e-04
      4.19086609e-05 6.98477652e-06 -7.19432021e-04 -7.19432021e-04
      -4.12101828e-04 7.19432021e-04 5.02903946e-04 6.98477670e-05
      1.39695530e-05 0. -4.74964821e-04 -8.59127555e-04 -9.28975292e-04
      6.28629932e-05 9.77868767e-05 2.58436747e-04 4.54010471e-04</_>
    <_>
      7.91897310e-06 -2.69245094e-04 7.91897310e-06 3.95948664e-05
      1.58379462e-05 -1.58379462e-05 2.37569184e-05 1.66298429e-04 0.
      -7.91897299e-04 -4.67219419e-04 -1.26703570e-04 6.49355818e-04
      3.40515835e-04 3.16758924e-05 2.05893302e-04 0. -7.83978321e-04
      -4.83057345e-04 -1.02946651e-04 1.09281833e-03 7.83978321e-04
      1.58379462e-05 -7.91897310e-06 -1.58379462e-05 -7.91897299e-04
      -6.09760929e-04 -1.66298429e-04 1.10073725e-03 7.52302469e-04
      3.16758924e-05 -1.58379462e-05 7.91897310e-06 -6.81031670e-04
      -1.10073725e-03 -1.07698038e-03 1.34622547e-04 1.34622547e-04
      3.16758924e-05 -2.37569184e-05 -7.91897310e-06 -4.75138368e-05
      -3.56353790e-04 -4.03867627e-04 8.07735254e-04 6.49355818e-04
      4.75138368e-05 7.91897310e-06 -7.91897310e-06 -1.90055347e-04
      -3.80110694e-04 -3.80110694e-04 6.25598885e-04 3.08839954e-04
      3.16758924e-05 2.61326117e-04 1.58379462e-05 -6.25598885e-04
      -1.01362856e-03 -1.06906134e-03 1.18784599e-04 2.61326117e-04
      5.14733256e-04 8.86924972e-04</_>
    <_>
      -5.58175861e-06 0. 2.34433872e-04 2.17688590e-04 2.00943323e-04
      2.12106839e-04 2.17688590e-04 2.23270355e-04 -1.11635172e-05
      -5.58175861e-06 1.39543976e-04 1.22798694e-04 6.25156972e-04
      6.36320503e-04 6.64229272e-04 6.69811037e-04 0. 5.58175861e-06
      -1.22798694e-04 -1.39543976e-04 6.30738738e-04 6.41902268e-04
      6.47484034e-04 6.53065799e-04 -1.67452763e-05 -1.11635172e-05
      -1.33962210e-04 -1.50707492e-04 6.47484034e-04 6.58647565e-04
      6.58647565e-04 6.64229272e-04 -1.11635172e-05 -2.62342655e-04
      -8.03773291e-04 -8.09355057e-04 -5.58175861e-06 5.58175861e-06
      1.39543976e-04 2.23270355e-04 -2.23270345e-05 -2.73506186e-04
      -7.92609761e-04 -7.98191526e-04 1.67452763e-05 2.79087944e-05
      1.56289243e-04 2.40015623e-04 -2.23270345e-05 -2.73506186e-04
      -7.92609761e-04 -7.98191526e-04 2.23270345e-05 3.34905526e-05
      1.56289243e-04 2.40015623e-04 -1.67452763e-05 -2.67924421e-04
      -7.92609761e-04 -7.98191526e-04 1.11635172e-05 2.23270345e-05
      1.45125727e-04 2.28852106e-04</_>
    <_>
      1.04410838e-05 -1.04410838e-05 3.86320084e-04 4.07202257e-04
      4.07202257e-04 4.28084430e-04 3.75878997e-04 3.44555767e-04 0.
      -1.87939499e-04 -2.19262758e-04 -1.77498427e-04 7.72640167e-04
      6.78670418e-04 8.87492090e-04 1.01278513e-03 1.04410838e-05
      -4.38525516e-04 -1.36778189e-03 -1.27381214e-03 1.35734081e-04
      -1.25293009e-04 3.75878997e-04 7.20434764e-04 -3.13232522e-05
      -1.77498427e-04 -6.47347188e-04 -4.38525516e-04 9.18815378e-04
      1.35734081e-04 3.34114680e-04 4.80289833e-04 1.04410838e-05
      -6.26465044e-05 -4.69848746e-04 -2.50586018e-04 1.07543159e-03
      1.56616254e-04 3.23673594e-04 4.28084430e-04 1.04410838e-05
      -3.13232522e-05 -3.54996853e-04 -2.08821672e-04 1.12763699e-03
      1.98380585e-04 3.86320084e-04 5.11613092e-04 -2.08821675e-05
      -2.29703845e-04 -8.14404513e-04 -5.53377438e-04 8.66609917e-04
      1.87939499e-04 5.95141784e-04 8.66609917e-04 -3.13232522e-05
      -3.54996853e-04 -1.12763699e-03 -7.93522340e-04 6.68229361e-04
      1.46175167e-04 7.09993707e-04 1.08587265e-03</_>
    <_>
      3.39560870e-06 3.39560870e-06 -1.01868263e-05 -1.01868263e-05
      1.49406784e-04 1.49406784e-04 1.66384838e-04 1.66384838e-04 0. 0.
      -3.19187238e-04 -3.19187238e-04 4.38033545e-04 4.38033545e-04
      4.95758897e-04 4.95758897e-04 3.39560870e-06 3.39560870e-06
      -4.82176460e-04 -4.82176460e-04 4.38033545e-04 4.38033545e-04
      4.65198391e-04 4.65198391e-04 -3.39560870e-06 -3.39560870e-06
      -4.75385226e-04 -4.75385226e-04 4.48220351e-04 4.48220351e-04
      3.73516959e-04 3.73516959e-04 0. 0. -4.92363295e-04
      -4.92363295e-04 1.12055088e-04 1.12055088e-04 3.05604808e-05
      3.05604808e-05 -3.39560870e-06 -3.39560870e-06 -4.92363295e-04
      -4.92363295e-04 7.13077825e-05 7.13077825e-05 1.35824348e-05
      1.35824348e-05 -3.39560870e-06 -3.39560870e-06 -5.05945703e-04
      -5.05945703e-04 3.87099397e-04 3.87099397e-04 1.76571659e-04
      1.76571659e-04 3.39560870e-06 3.39560870e-06 -5.02550101e-04
      -5.02550101e-04 4.31242312e-04 4.31242312e-04 4.68594022e-04
      4.68594022e-04</_>
    <_>
      1.13502228e-05 1.13502228e-05 4.65359131e-04 4.65359131e-04
      4.19958233e-04 4.19958233e-04 4.08608001e-04 4.08608001e-04 0. 0.
      2.72405334e-04 2.72405334e-04 1.28257519e-03 1.28257519e-03
      1.31662586e-03 1.31662586e-03 2.27004457e-05 2.27004457e-05
      -2.61055131e-04 -2.61055131e-04 1.29392534e-03 1.29392534e-03
      1.28257519e-03 1.28257519e-03 -1.13502228e-05 -1.13502228e-05
      -2.83755566e-04 -2.83755566e-04 1.32797600e-03 1.32797600e-03
      1.30527560e-03 1.30527560e-03 1.13502228e-05 1.13502228e-05
      -3.29156464e-04 -3.29156464e-04 0. 0. 1.13502228e-05
      1.13502228e-05 -1.13502228e-05 -1.13502228e-05 -3.06456001e-04
      -3.06456001e-04 4.54008914e-05 4.54008914e-05 4.54008914e-05
      4.54008914e-05 -1.13502228e-05 -1.13502228e-05 -3.06456001e-04
      -3.06456001e-04 5.67511124e-05 5.67511124e-05 4.54008914e-05
      4.54008914e-05 0. 0. -3.06456001e-04 -3.06456001e-04
      3.40506667e-05 3.40506667e-05 2.27004457e-05 2.27004457e-05</_>
    <_>
      0. -1.60137079e-05 -3.20274157e-05 0. 0. 0. 1.60137079e-05
      -2.08178200e-04 0. 6.40548315e-05 9.60822435e-05 2.40205612e-04
      2.88246752e-04 2.08178200e-04 8.00685375e-05 -2.08178200e-04
      -1.60137079e-05 6.72575727e-04 9.60822435e-05 -1.60137075e-04
      -3.20274157e-05 1.44123376e-04 2.08178200e-04 3.20274157e-05
      3.20274157e-05 1.28109663e-04 -7.84671691e-04 -1.32913771e-03
      -9.12781339e-04 -1.12095957e-04 1.76150788e-04 3.04260437e-04 0.
      1.60137079e-05 -2.24191914e-04 1.92164487e-04 5.92507189e-04
      1.92164487e-04 -9.60822450e-04 -1.74549420e-03 0. -3.20274157e-05
      1.32913771e-03 2.00171350e-03 1.44123367e-03 -3.20274157e-05
      -1.64941186e-03 -2.24191905e-03 -1.60137079e-05 -3.20274157e-05
      8.48726486e-04 1.04089105e-03 4.16356401e-04 -5.44466078e-04
      -1.28109660e-03 -1.28109660e-03 -1.60137079e-05 5.76493505e-04
      3.04260437e-04 9.60822435e-05 0. 9.60822435e-05 4.96424967e-04
      1.23305549e-03</_>
    <_>
      0. 2.39120738e-04 2.21624097e-04 5.24899187e-05 -2.33288520e-05
      -2.33288520e-05 1.39973112e-04 1.39973112e-04 -1.74966390e-05
      7.64019904e-04 2.85778427e-04 -3.38268350e-04 -3.90758272e-04
      -1.92463034e-04 4.37415991e-04 6.41543418e-04 1.16644260e-05
      2.68281787e-04 -6.06550137e-04 -7.52355496e-04 -6.59040059e-04
      -3.96590476e-04 4.49080399e-04 7.58187671e-04 -1.16644260e-05
      -6.24046777e-04 -7.40691030e-04 -2.39120738e-04 -4.49080399e-04
      -1.39973112e-04 4.02422709e-04 4.95738117e-04 0. -7.64019904e-04
      -1.28308689e-04 3.20771709e-04 -4.08254928e-05 -1.04979837e-04
      -1.74966390e-05 -1.74966393e-04 -5.83221299e-06 -5.77389088e-04
      -6.41543447e-05 1.28308689e-04 -1.80798612e-04 -5.42395806e-04
      -6.94033341e-04 -5.24899166e-04 0. 5.13234758e-04 6.24046777e-04
      4.54912632e-04 -3.26603942e-04 -5.01570350e-04 -1.98295238e-04
      8.74831967e-05 -1.16644260e-05 7.23194447e-04 7.81516545e-04
      7.99013185e-04 3.49932779e-05 -3.49932779e-05 4.02422709e-04
      7.46523263e-04</_>
    <_>
      1.42778836e-05 1.49049374e-04 1.58790397e-04 1.73068271e-04
      1.68865052e-04 1.78272428e-04 5.57769781e-05 -1.79940616e-04
      -7.32571716e-05 2.78884891e-05 -1.87813886e-04 -2.56733736e-04
      -9.73415445e-05 2.08231359e-04 7.76608998e-04 7.30105327e-04
      -4.95719141e-05 -4.78107977e-04 -6.52779010e-04 -6.04741217e-04
      -3.11777985e-04 2.61738343e-04 1.10706768e-03 1.26312347e-03
      -7.29235326e-05 -1.10032933e-03 -9.86374449e-04 -9.38336656e-04
      -4.98191803e-04 3.16779420e-04 6.84867555e-04 4.55021393e-04
      -4.04981765e-05 -7.95155589e-04 -4.15324583e-04 2.07897727e-04
      4.68236016e-04 2.42324910e-04 -2.15103704e-04 -7.13295536e-04
      1.62630326e-19 1.27500040e-04 8.78421939e-04 1.18246069e-03
      6.47843000e-04 -3.17780330e-04 -8.98705330e-04 -9.44675819e-04
      -3.10907999e-05 9.88101892e-05 5.54099737e-04 5.21474809e-04
      -3.22912747e-05 -5.75917249e-04 -4.85582132e-04 -3.35865479e-04
      -5.51097000e-05 3.19651241e-04 1.57724004e-04 4.31672925e-05
      5.86456481e-05 3.24453140e-04 7.39911804e-04 1.04528514e-03</_>
    <_>
      7.77354126e-06 7.77354126e-06 -7.77354126e-06 -7.77354126e-06 0.
      2.33206229e-05 3.88677072e-05 1.16603122e-04 -2.33206229e-05
      5.44147879e-05 -1.47697283e-04 -5.44147879e-05 2.09885606e-04
      5.05280157e-04 7.69580598e-04 7.92901206e-04 1.55470825e-05
      -3.80903512e-04 -3.34262266e-04 -3.03168112e-04 -1.39923737e-04
      3.18715203e-04 9.09504306e-04 1.04942801e-03 -1.55470825e-05
      -8.86183698e-04 -8.78410181e-04 -8.47315998e-04 -5.75242040e-04
      -9.32824914e-05 1.24376660e-04 2.33206229e-05 0. -9.71692672e-04
      -3.10941658e-04 4.50865395e-04 7.46259931e-04 4.04224149e-04
      -4.27544757e-04 -1.08829571e-03 0. -7.07392232e-04 3.96450603e-04
      9.56145581e-04 6.99618715e-04 7.77354126e-06 -7.22939323e-04
      -1.11161638e-03 7.77354126e-06 -7.77354126e-06 2.02112074e-04
      3.49809357e-04 1.78791452e-04 -2.64300412e-04 -6.29656832e-04
      -6.14109740e-04 -2.33206229e-05 4.43091849e-04 2.25432697e-04
      3.10941650e-05 -3.10941650e-05 5.44147879e-05 2.72073928e-04
      6.60751015e-04</_>
    <_>
      -1.36251847e-05 6.81259262e-05 5.45007388e-05 4.08755550e-05
      4.08755550e-05 4.08755550e-05 1.36251847e-05 -2.45253323e-04
      -1.36251847e-05 1.18539110e-03 7.76635541e-04 3.27004440e-04
      2.86128867e-04 3.54254793e-04 6.81259262e-05 -1.09001478e-04
      1.36251847e-05 1.02188881e-03 3.54254793e-04 -2.86128867e-04
      -7.35759968e-04 -6.40383689e-04 4.22380719e-04 1.21264148e-03 0.
      1.09001478e-04 8.17511100e-05 -8.03885923e-04 -1.04913919e-03 0.
      1.29439251e-03 1.13089033e-03 0. -1.09001478e-04 -3.40629631e-04
      -3.81505175e-04 -4.08755550e-05 6.13133307e-04 1.04913919e-03
      6.81259262e-05 0. 2.45253323e-04 1.90752588e-04 5.45007388e-05
      -9.53762938e-05 -6.81259262e-05 1.77127396e-04 2.72503694e-05
      2.72503694e-05 1.33526814e-03 4.22380719e-04 -3.27004440e-04
      -2.99754058e-04 2.31628146e-04 7.35759968e-04 7.49385159e-04
      -5.45007388e-05 1.36251852e-03 4.36005910e-04 2.72503694e-05
      5.58632601e-04 1.40339404e-03 1.83939992e-03 1.82577479e-03</_>
    <_>
      -1.08628346e-05 0. 0. 3.25885048e-05 1.08628346e-05
      -1.08628346e-05 2.17256693e-05 -9.77655145e-05 -1.08628346e-05
      -1.08628346e-05 -1.84668199e-04 3.25885048e-05 2.71570869e-04
      2.38982364e-04 -1.08628346e-05 -8.69026771e-05 1.08628346e-05
      -5.43141738e-04 -8.79889645e-04 -5.32278907e-04 -1.08628346e-05
      1.73805354e-04 3.25885048e-05 1.08628346e-05 2.17256693e-05
      -1.09714631e-03 -1.40130566e-03 -1.23836321e-03 -6.73495757e-04
      -7.60398470e-05 9.77655145e-05 1.62942524e-04 -1.08628346e-05
      -1.31440302e-03 -1.03196932e-03 -1.52079694e-04 3.91062058e-04
      1.52079694e-04 -6.19181606e-04 -1.20577472e-03 -1.08628346e-05
      -9.45066626e-04 3.15022218e-04 1.19491189e-03 1.04283215e-03
      8.69026771e-05 -1.10800914e-03 -1.48820842e-03 2.17256693e-05
      -4.34513386e-05 4.23650577e-04 6.40907267e-04 4.01924888e-04
      -2.06393859e-04 -8.58163985e-04 -9.66792286e-04 -2.17256693e-05
      3.58473568e-04 1.95531029e-04 6.51770097e-05 0. 4.34513386e-05
      3.25885048e-04 6.51770097e-04</_>
    <_>
      1.08835839e-05 -2.17671677e-05 -2.17671677e-05 1.08835839e-05
      -1.08835839e-05 -3.26507507e-05 4.35343354e-05 4.35343354e-05
      -1.08835839e-05 3.26507507e-05 -8.70686708e-05 7.61850897e-05
      2.06788085e-04 1.41486584e-04 4.35343354e-05 6.53015013e-05 0.
      -5.22412010e-04 -4.13576170e-04 -1.63253761e-04 2.06788085e-04
      3.91809008e-04 6.53015013e-05 1.08835839e-05 -1.08835839e-05
      -1.22984499e-03 -7.72734464e-04 -1.41486584e-04 5.11528458e-04
      7.50967301e-04 0. -5.33295621e-04 0. -1.18631066e-03
      -1.18631066e-03 -5.65946335e-04 0. -1.08835839e-05 -6.85665756e-04
      -1.53458526e-03 0. 7.61850897e-05 6.31247880e-04 9.14221047e-04
      6.96549367e-04 -1.52370179e-04 -1.37133151e-03 -1.54546893e-03 0.
      8.16268788e-04 1.02305692e-03 7.61850853e-04 1.41486584e-04
      -5.65946335e-04 -9.25104599e-04 -6.31247880e-04 0. 2.39438843e-04
      1.41486584e-04 4.35343354e-05 6.53015013e-05 2.50322424e-04
      6.31247880e-04 1.16454344e-03</_>
    <_>
      -9.31536670e-06 2.98091734e-04 3.63299303e-04 3.26037843e-04
      3.07407114e-04 3.44668573e-04 3.72614682e-04 2.14253450e-04
      -2.79461019e-05 9.50167421e-04 7.07967905e-04 4.19191521e-04
      4.56452981e-04 7.82490824e-04 1.10852870e-03 9.31536721e-04 0.
      4.84399090e-04 9.31536670e-06 -2.51514924e-04 -5.58922038e-05
      4.84399090e-04 1.11784402e-03 1.10852870e-03 -1.86307334e-05
      -1.39730502e-04 -1.67676611e-04 -1.76991976e-04 2.23568815e-04
      8.57013802e-04 1.06195186e-03 6.70706446e-04 -2.79461019e-05
      -6.52075687e-04 -1.06195186e-03 -5.68237389e-04 -1.67676611e-04
      -1.58361247e-04 -3.91245412e-04 -9.12905962e-04 -2.79461019e-05
      -3.35353223e-04 -3.63299303e-04 -7.45229336e-05 -3.26037843e-04
      -8.47698422e-04 -9.68798180e-04 -9.31536721e-04 -2.79461019e-05
      4.65768360e-04 0. -2.32884180e-04 -5.77552768e-04 -7.91806204e-04
      -5.68237389e-04 -4.47137631e-04 -4.65768353e-05 4.93714469e-04
      -9.31536670e-06 -3.72614668e-05 -6.52075687e-05 -5.58922038e-05
      1.76991976e-04 3.35353223e-04</_>
    <_>
      9.80565164e-06 3.03975219e-04 3.33392178e-04 3.43197811e-04
      3.53003474e-04 3.92226066e-04 3.62809136e-04 1.56890426e-04
      -9.80565164e-06 8.33480444e-04 2.94169557e-04 5.88339135e-05
      1.07862172e-04 3.43197811e-04 8.33480444e-04 7.55035202e-04
      9.80565164e-06 8.82508684e-05 -1.05901039e-03 -1.21590088e-03
      -1.03939907e-03 -7.35423877e-04 3.92226066e-04 6.96201285e-04
      -1.96113033e-05 -2.94169557e-04 -5.49116521e-04 -3.33392178e-04
      -3.92226066e-05 -1.27473482e-04 2.74558261e-04 -9.80565164e-06 0.
      -2.84363894e-04 -1.47084778e-04 5.88339113e-04 8.43286049e-04
      -2.94169567e-05 -3.53003474e-04 -9.51148220e-04 1.96113033e-05
      9.80565164e-05 6.76589960e-04 1.12765003e-03 6.86395622e-04
      -7.55035202e-04 -9.31536953e-04 -9.21731291e-04 -9.80565164e-06
      7.55035202e-04 6.27561705e-04 6.37367368e-04 1.66696089e-04
      -7.15812610e-04 -3.13780853e-04 -7.84452131e-05 -4.90282582e-05
      6.56978693e-04 3.23586515e-04 6.17756101e-04 5.39310859e-04
      3.92226066e-05 5.98144776e-04 9.70759545e-04</_>
    <_>
      5.09062602e-06 1.67990656e-04 -3.05437570e-05 -3.56343808e-05
      2.08715661e-04 2.18896908e-04 2.54531304e-04 1.62900033e-04
      -5.09062602e-06 5.24334493e-04 -2.18896908e-04 -3.61434446e-04
      3.35981313e-04 5.03971940e-04 7.43231387e-04 6.41418854e-04
      5.09062602e-06 2.64712551e-04 -6.05784473e-04 -7.33050110e-04
      5.09062593e-05 3.35981313e-04 7.17778224e-04 7.07597006e-04 0.
      -7.12687615e-05 -6.82143844e-04 -6.71962625e-04 2.03625037e-04
      5.39606321e-04 5.39606321e-04 3.20709427e-04 -5.09062602e-06
      -1.17084397e-04 -5.85421978e-04 -3.10528179e-04 8.14500163e-05
      7.63593853e-05 -2.95256294e-04 -6.56690740e-04 0. 6.10875140e-05
      -2.13806285e-04 -5.09062593e-05 -8.65406400e-05 -3.81796941e-04
      -6.51600130e-04 -7.07597006e-04 0. 4.98881331e-04 -3.56343808e-05
      -1.57809409e-04 2.44350056e-04 1.17084397e-04 -1.88353151e-04
      -1.98534413e-04 -5.09062602e-06 5.19243826e-04 -3.56343808e-05
      -4.58156319e-05 6.00693864e-04 5.95603255e-04 6.66872016e-04
      6.77053235e-04</_>
    <_>
      6.63774836e-06 2.19045687e-04 2.52234429e-04 2.45596690e-04
      2.25683441e-04 2.38958935e-04 2.45596690e-04 1.26117215e-04
      -6.63774836e-06 6.83688093e-04 4.97831090e-04 3.11974174e-04
      3.31887422e-04 5.50933124e-04 7.69978797e-04 6.37223828e-04
      1.32754967e-05 3.51800642e-04 0. -1.65943711e-04 -3.31887422e-05
      3.38525162e-04 7.76616565e-04 7.63341028e-04 0. -9.29284724e-05
      -1.26117215e-04 -1.12841721e-04 1.65943711e-04 6.04035100e-04
      7.36790069e-04 4.51366883e-04 0. -1.46030463e-04 6.63774836e-06
      3.65076150e-04 -1.12841721e-04 -1.19479468e-04 -4.38091374e-04
      -9.09371476e-04 0. 7.96529785e-05 5.04468859e-04 7.16876821e-04
      -2.25683441e-04 -6.10672811e-04 -8.49631790e-04 -9.22647014e-04 0.
      6.50499307e-04 7.63341028e-04 6.04035100e-04 -4.04902647e-04
      -5.70846372e-04 -5.64208603e-04 -5.77484083e-04 -1.32754967e-05
      6.70412555e-04 7.56703317e-04 7.43427780e-04 -3.98264892e-05
      -4.64642362e-05 -3.31887422e-05 -1.99132446e-05</_>
    <_>
      0. 2.68471806e-04 2.55687453e-04 5.75296763e-05 -2.55687446e-05
      -2.55687446e-05 1.47020284e-04 2.36510896e-04 -1.91765594e-05
      8.11807637e-04 2.74863996e-04 -4.66629601e-04 -5.43335802e-04
      -2.94040568e-04 4.47453029e-04 7.86238874e-04 1.91765594e-05
      2.55687446e-05 -7.03140453e-04 -7.60670169e-04 -7.09532644e-04
      -4.92198335e-04 4.09099914e-04 8.18199827e-04 -2.55687446e-05
      -7.35101406e-04 -4.98590525e-04 2.68471806e-04 -1.27843727e-04
      -1.08667162e-04 3.70746799e-04 4.21884295e-04 0. -8.43768590e-04
      -5.11374892e-05 2.74863996e-04 -2.81256187e-04 -1.91765590e-04
      3.64354608e-04 5.04982716e-04 -6.39218615e-06 -6.20042032e-04
      -6.00865518e-04 -6.58395176e-04 -7.73454551e-04 -5.81688946e-04
      -1.02274978e-04 3.19609302e-04 6.39218615e-06 5.75296755e-04
      3.45178065e-04 8.30984209e-05 -5.24159288e-04 -3.32393683e-04
      2.94040568e-04 6.07257709e-04 -6.39218615e-06 5.62512374e-04
      7.35101406e-04 8.37376399e-04 3.83531187e-05 -7.67062375e-05
      2.42903072e-04 3.26001493e-04</_>
    <_>
      3.86207430e-05 8.77384664e-05 1.44203164e-04 1.41270313e-04
      1.53248577e-04 1.74025365e-04 7.40617616e-05 2.15174368e-05
      -7.67477250e-05 -3.56878991e-05 -5.25285548e-04 -5.95180085e-04
      -1.28304528e-04 6.43369742e-04 1.63256819e-03 1.72666612e-03
      3.42660678e-06 -1.85768644e-03 -1.72228180e-03 -1.24123576e-03
      -7.03725033e-04 3.20203573e-04 2.04736344e-03 2.65600323e-03
      -1.03390208e-04 -2.58218823e-03 -1.50059024e-03 -6.45561900e-04
      -2.98715866e-04 1.15091862e-04 4.05226339e-04 -4.18301970e-05
      -1.14844979e-05 -1.38713734e-03 -2.86214112e-04 6.49235386e-04
      9.74099967e-04 7.89054146e-04 2.25829048e-04 -2.39101166e-04
      -1.89735380e-19 3.44406988e-04 1.65967474e-04 9.23994739e-05
      1.06599662e-04 2.71659719e-05 -5.74522164e-05 2.55404389e-04
      3.00690917e-05 6.13428638e-05 -3.16806691e-04 -4.25568840e-04
      -3.84726154e-04 -2.53705948e-04 1.43215628e-04 2.39999514e-04
      -4.42395540e-05 1.49357933e-04 5.98913030e-05 6.11257065e-06
      2.32158782e-05 1.87948943e-04 4.51440952e-04 3.54410178e-04</_>
    <_>
      1.61334556e-05 3.22669111e-05 1.61334556e-05 -1.61334556e-05 0.
      4.84003685e-05 6.45338223e-05 4.51736763e-04 -4.84003685e-05
      4.84003685e-05 -4.03336395e-04 -3.54936026e-04 1.45201106e-04
      8.38939683e-04 1.51654484e-03 1.85534742e-03 4.84003685e-05
      -1.46814447e-03 -7.90539314e-04 -4.67870210e-04 -2.58135289e-04
      5.16270578e-04 1.67787937e-03 2.14574975e-03 -6.45338223e-05
      -1.96828158e-03 -1.03254116e-03 -4.19469841e-04 -2.74268765e-04
      -8.06672833e-05 8.06672833e-05 -2.58135289e-04 0. -2.03281548e-03
      -4.19469841e-04 7.42138945e-04 9.51873895e-04 6.45338267e-04
      8.06672833e-05 -5.00137161e-04 0. -1.43587752e-03 -5.16270578e-04
      -3.22669111e-05 0. 4.84003685e-05 1.61334567e-04 -4.84003685e-05
      3.22669111e-05 1.61334556e-05 -4.35603317e-04 -3.22669133e-04
      -4.84003685e-05 0. -1.61334556e-05 1.61334556e-05 -3.22669111e-05
      3.38802580e-04 1.61334567e-04 -3.22669111e-05 -6.45338223e-05
      1.61334556e-05 6.45338223e-05 1.29067645e-04</_>
    <_>
      -8.75296519e-06 5.25177893e-05 5.25177893e-05 2.62588946e-05
      2.62588946e-05 2.62588946e-05 0. -4.37648268e-05 -8.75296519e-06
      7.26496102e-04 4.46401216e-04 7.87766839e-05 2.62588946e-05
      1.13788548e-04 0. 4.37648268e-05 1.75059304e-05 2.88847834e-04
      1.75059307e-04 -9.62826161e-05 -4.55154193e-04 -4.90166072e-04
      1.57553368e-04 7.61507952e-04 -1.75059304e-05 0. 4.81413066e-04
      2.10071157e-04 -1.75059307e-04 6.12707590e-05 7.35249079e-04
      5.60189772e-04 0. -7.87766839e-05 -9.62826161e-05 -3.50118615e-04
      -3.50118615e-04 2.88847834e-04 1.19915616e-03 9.97837982e-04 0.
      1.75059307e-04 -6.03954599e-04 -1.05910876e-03 -8.49037606e-04
      -2.62588946e-05 1.01534394e-03 1.24292099e-03 2.62588946e-05
      8.75296479e-04 -1.92565232e-04 -7.79013906e-04 -4.20142314e-04
      4.46401216e-04 1.17289729e-03 1.18165032e-03 -2.62588946e-05
      5.60189772e-04 1.13788548e-04 -3.50118607e-05 3.58871563e-04
      8.49037606e-04 9.10308387e-04 4.98918991e-04</_>
    <_>
      -2.79520900e-05 2.79520900e-05 5.59041800e-05 8.38562701e-05
      2.79520900e-05 -2.79520900e-05 2.79520900e-05 1.11808360e-04
      -2.79520900e-05 -1.39760450e-04 -6.42898085e-04 -3.35425080e-04
      1.95664630e-04 2.51568825e-04 -1.67712540e-04 1.39760450e-04
      5.59041800e-05 -2.57159234e-03 -2.43183179e-03 -1.09013147e-03
      2.79520900e-05 1.95664630e-04 -2.79520900e-04 -2.79520900e-05 0.
      -3.04677780e-03 -2.23616720e-03 -8.66514805e-04 -1.39760450e-04 0.
      -5.59041800e-05 -1.11808360e-04 -2.79520900e-05 -3.41015495e-03
      -2.26411922e-03 -7.26754370e-04 -2.79520900e-05 5.59041800e-05
      8.38562701e-05 -5.59041800e-05 -2.79520900e-05 -2.37592775e-03
      -1.50941289e-03 -4.19281365e-04 1.67712540e-04 2.79520900e-04
      2.79520900e-05 8.38562701e-05 8.38562701e-05 -5.59041800e-05
      -3.91329260e-04 -1.67712540e-04 3.07473005e-04 4.19281365e-04
      2.79520900e-05 -2.51568825e-04 -2.79520900e-05 -8.38562701e-05
      -2.79520900e-05 0. 0. -5.59041800e-05 -2.79520900e-05
      -4.75185545e-04</_>
    <_>
      2.08441888e-05 -2.08441888e-05 0. 2.08441888e-05 -2.08441888e-05
      -6.25325702e-05 6.25325702e-05 3.54351214e-04 -2.08441888e-05
      -2.08441888e-05 -2.91818666e-04 -1.66753511e-04 2.08441888e-05 0.
      -2.08441888e-05 3.96039599e-04 2.08441888e-05 -1.87597703e-03
      -9.17144353e-04 -1.04220948e-04 4.37727984e-04 5.62793110e-04
      -1.45909333e-04 -2.08441888e-05 -6.25325702e-05 -2.52214703e-03
      -4.58572176e-04 1.45909330e-03 2.16779578e-03 1.58415840e-03
      -2.29286088e-04 -1.41740486e-03 0. -2.29286077e-03 -1.98019808e-03
      -1.33402809e-03 -7.71235034e-04 -2.70974473e-04 -6.25325702e-05
      -6.67014043e-04 0. 1.87597703e-04 -5.21104725e-04 -8.54611804e-04
      -5.41948946e-04 -2.50130281e-04 -4.79416369e-04 -4.16883777e-05
      2.08441888e-05 1.60500256e-03 8.54611804e-04 1.04220948e-04
      -2.70974473e-04 -3.75195406e-04 -1.04220948e-04 4.58572176e-04
      2.08441888e-05 -2.91818666e-04 -1.25065140e-04 -4.16883777e-05
      1.25065140e-04 3.54351214e-04 5.62793110e-04 6.25325716e-04</_>
    <_>
      -8.65815855e-06 2.85719230e-04 3.54984513e-04 3.03035544e-04
      2.85719230e-04 3.20351857e-04 3.37668171e-04 3.11693700e-04
      -2.59744756e-05 8.48499534e-04 6.06071088e-04 2.59744760e-04
      2.68402917e-04 6.14729244e-04 9.87030100e-04 9.78371943e-04
      8.65815855e-06 8.65815891e-05 -4.32907946e-05 -1.47188694e-04
      -3.46326342e-05 3.72300827e-04 9.26422945e-04 1.01300457e-03
      -3.46326342e-05 -1.99137648e-04 2.68402917e-04 5.54122147e-04
      7.01310870e-04 8.57157691e-04 8.91790318e-04 4.58882394e-04
      -2.59744756e-05 -6.14729244e-04 -8.65815848e-04 -6.32045558e-04
      -4.76198737e-04 -2.51086603e-04 1.55846850e-04 9.52397459e-05
      -2.59744756e-05 -2.94377387e-04 -1.05629535e-03 -1.15153508e-03
      -1.08226982e-03 -7.70576124e-04 -8.65815855e-06 3.46326357e-04
      -1.73163171e-05 4.50224237e-04 -4.58882394e-04 -7.79234280e-04
      -7.61917967e-04 -4.41566081e-04 1.64505007e-04 2.77061074e-04
      -3.46326342e-05 1.47188694e-04 -1.73163178e-04 -8.65815891e-05
      -6.06071117e-05 -1.03897903e-04 -1.03897903e-04 -3.54984513e-04</_>
    <_>
      1.55995294e-05 4.99184942e-04 5.61583031e-04 5.45983494e-04
      5.61583031e-04 6.23981177e-04 5.61583031e-04 4.52386332e-04
      -1.55995294e-05 1.26356189e-03 3.74388706e-04 -1.40395758e-04
      -1.09196699e-04 3.43189633e-04 1.24796235e-03 1.40395761e-03
      3.11990589e-05 -5.14784479e-04 -1.77834625e-03 -1.77834625e-03
      -1.62235100e-03 -1.31036039e-03 4.21187287e-04 1.07636745e-03
      -6.23981177e-05 -5.92782104e-04 -1.09196699e-04 7.64376891e-04
      8.26775038e-04 -9.35971766e-05 2.65191979e-04 -3.11990589e-04 0.
      -4.67985868e-04 -1.55995294e-05 7.48777413e-04 7.64376891e-04
      -2.33992934e-04 3.74388706e-04 1.87194353e-04 3.11990589e-05
      1.87194353e-04 -2.18393398e-04 -1.55995294e-04 -3.11990589e-04
      -1.16996467e-03 1.24796235e-04 7.17578339e-04 0. 1.23236282e-03
      1.71594816e-04 0. -1.40395758e-04 -6.08381641e-04 7.48777413e-04
      1.12316606e-03 -6.23981177e-05 4.83585405e-04 2.18393398e-04
      8.89173127e-04 8.57974112e-04 -3.11990589e-05 4.67985868e-04
      3.43189633e-04</_>
    <_>
      5.94721268e-06 2.02205221e-04 -2.37888507e-05 -4.16304865e-05
      2.43835719e-04 2.55730149e-04 2.91413424e-04 2.67624564e-04
      -5.94721268e-06 5.88774041e-04 -2.91413424e-04 -5.11460297e-04
      2.85466202e-04 5.11460297e-04 8.38556967e-04 8.26662523e-04
      1.18944254e-05 5.94721241e-05 -7.43401586e-04 -7.96926499e-04
      7.13665504e-05 3.38991114e-04 7.61243224e-04 8.14768136e-04
      -1.18944254e-05 -1.30838671e-04 -5.05513046e-04 -2.91413424e-04
      5.76879596e-04 6.72035036e-04 5.64985210e-04 2.61677342e-04
      -5.94721268e-06 -1.42733101e-04 -6.00668485e-04 -4.34146525e-04
      -1.24891463e-04 1.78416376e-05 1.18944254e-05 -1.18944248e-04 0.
      8.32609730e-05 -7.43401586e-04 -8.02873692e-04 -6.36351760e-04
      -4.34146525e-04 -1.48680308e-04 5.94721268e-06 5.94721268e-06
      5.94721234e-04 -3.56832752e-04 -5.70932403e-04 1.30838671e-04
      3.38991114e-04 2.55730149e-04 2.43835719e-04 0. 3.92516027e-04
      -1.54627531e-04 -8.92081880e-05 7.01771060e-04 6.60140591e-04
      5.94721234e-04 3.33043892e-04</_>
    <_>
      9.80565164e-06 3.33392178e-04 3.92226066e-04 3.62809136e-04
      3.33392178e-04 3.53003474e-04 3.53003474e-04 3.13780853e-04
      -9.80565164e-06 9.70759545e-04 6.76589960e-04 3.13780853e-04
      3.13780853e-04 6.86395622e-04 1.08842738e-03 1.06881605e-03
      2.94169567e-05 1.07862172e-04 -5.88339135e-05 -1.47084778e-04
      -2.94169567e-05 4.11837391e-04 1.01978786e-03 1.10803870e-03
      -1.96113033e-05 -2.15724343e-04 2.94169557e-04 6.47173030e-04
      8.04063457e-04 9.60953883e-04 9.80565208e-04 4.80476941e-04 0.
      -2.25529991e-04 1.47084778e-04 4.21643024e-04 -5.29505196e-04
      -2.94169557e-04 -5.88339135e-05 -2.74558261e-04 0. 1.37279130e-04
      -6.86395651e-05 -1.66696089e-04 -1.21590088e-03 -8.82508699e-04
      -2.45141302e-04 9.80565164e-06 9.80565164e-06 9.80565208e-04
      6.07950438e-04 2.54946965e-04 -8.53091711e-04 -5.09893929e-04
      -4.90282582e-05 -6.86395651e-05 -9.80565164e-06 6.37367368e-04
      9.31536953e-04 1.03939907e-03 -5.88339135e-05 -1.27473482e-04
      -3.53003474e-04 -7.84452131e-04</_>
    <_>
      1.40957118e-05 -1.82718126e-04 -1.43596932e-04 1.87462429e-04
      3.17187805e-04 3.28117574e-04 -1.87540209e-04 -5.23723604e-04
      -8.22364163e-05 -1.39441399e-03 -7.58752809e-04 2.35935047e-04
      4.57170478e-04 4.43074765e-04 7.50764739e-05 -2.99175881e-04
      -1.11859823e-04 -1.08317833e-03 4.33119421e-04 7.47219077e-04
      8.92774144e-04 1.07224856e-03 4.89502272e-04 7.90704871e-05
      -9.77641175e-05 -1.13895723e-04 3.61735001e-04 -5.37370972e-04
      3.97388329e-04 8.87114787e-04 3.50649643e-04 -1.71038075e-04
      -7.44725621e-05 3.70862253e-04 -3.61735001e-04 -5.14148036e-04
      3.71242000e-04 3.01289576e-04 -2.51810761e-05 -1.74281784e-04
      1.09297807e-05 1.22270349e-03 1.15825480e-03 1.10594369e-03
      8.99563543e-04 4.05463332e-04 3.31283518e-04 8.55487160e-05
      -6.35427859e-05 -7.77222274e-04 -3.71164206e-04 -1.66888480e-04
      4.94781882e-04 1.61160526e-04 -3.55069460e-05 -3.14859150e-04
      -6.21107974e-05 -1.05121708e-03 -1.31873367e-03 -1.45969074e-03
      3.99492819e-05 5.84626570e-04 2.94948492e-04 -5.99285268e-05</_>
    <_>
      8.09271023e-06 -3.23708402e-04 -3.15615704e-04 -8.09271005e-05
      3.23708409e-05 5.66489689e-05 -1.53761488e-04 -7.28343875e-05 0.
      -1.00349600e-03 -5.50304307e-04 4.12728201e-04 7.60714756e-04
      7.93085608e-04 1.94225038e-04 -6.47416819e-05 0. -7.68807484e-04
      4.93655331e-04 7.28343904e-04 7.68807484e-04 8.82105378e-04
      3.23708402e-04 4.04635502e-05 0. -5.66489689e-05 1.13297938e-04
      -5.50304307e-04 2.42781298e-05 9.71125191e-05 -4.28913627e-04
      -6.63602201e-04 0. 4.85562596e-05 -1.45668775e-04 2.42781298e-05
      8.33549129e-04 5.66489703e-04 -4.20820928e-04 -8.90198105e-04
      8.09271023e-06 6.47416819e-05 5.01748000e-04 8.17363732e-04
      9.79217933e-04 7.60714756e-04 2.10410464e-04 -4.28913627e-04
      8.09271023e-06 -7.20251177e-04 -6.55509531e-04 -2.67059426e-04
      6.39324076e-04 4.20820928e-04 -3.80357378e-04 -7.60714756e-04
      -8.09271023e-06 -5.42211579e-04 -8.49734584e-04 -1.07633043e-03
      -8.09271005e-05 1.05205232e-04 -2.75152153e-04 -3.47986526e-04</_>
    <_>
      -7.14632824e-06 -2.57267820e-04 -2.42975162e-04 -4.28779676e-05
      5.00242968e-05 5.00242968e-05 -1.64365556e-04 -3.00145795e-04
      1.42926565e-05 -3.14438454e-04 5.71706260e-05 5.85998932e-04
      6.28876907e-04 4.21633362e-04 -5.00242983e-04 -8.43266724e-04
      -7.14632824e-06 2.07243516e-04 9.29022674e-04 7.71803432e-04
      4.21633362e-04 1.50072898e-04 -3.28731112e-04 -2.92999466e-04
      1.42926565e-05 8.21827736e-04 9.50461661e-04 -1.28633910e-04 0.
      1.71511871e-04 1.85804529e-04 -1.42926565e-05 0. 8.78998369e-04
      -2.14389838e-05 -5.93145262e-04 2.85853130e-05 4.50218678e-04
      5.71706274e-04 2.50121491e-04 7.14632824e-06 8.36120395e-04
      1.78658200e-04 -1.28633910e-04 1.71511871e-04 6.28876907e-04
      9.43315332e-04 6.57462224e-04 1.42926565e-05 7.14632843e-05
      -5.43120957e-04 -7.28925457e-04 2.42975162e-04 7.36071786e-04
      6.28876907e-04 2.85853137e-04 -1.42926565e-05 -1.71511871e-04
      -7.28925457e-04 -9.64754319e-04 2.50121491e-04 7.78949761e-04
      4.71657666e-04 4.28779676e-05</_>
    <_>
      -7.16350360e-06 -2.93703633e-04 -2.72213132e-04 -4.29810207e-05
      3.58175166e-05 2.14905103e-05 -1.57597067e-04 -2.36395616e-04
      1.43270072e-05 -9.45582462e-04 -4.72791231e-04 4.36973700e-04
      6.59042329e-04 3.93992697e-04 -5.44426264e-04 -8.45293398e-04
      -7.16350360e-06 -6.87696331e-04 1.64760582e-04 5.73080266e-04
      8.02312396e-04 6.01734268e-04 -5.30099263e-04 -9.24091961e-04
      2.86540144e-05 4.29810207e-05 -1.43270072e-05 -5.22935763e-04
      1.07452550e-04 1.21779558e-04 -4.29810199e-04 -5.01445262e-04
      -7.16350360e-06 7.16350332e-05 -5.22935763e-04 -4.94281761e-04
      3.08030634e-04 2.29232115e-04 -3.86829197e-04 -5.80243766e-04 0.
      8.59620413e-05 2.86540133e-04 6.30388269e-04 9.09764902e-04
      7.23513833e-04 1.21779558e-04 -3.36684665e-04 1.43270072e-05
      -6.59042329e-04 -4.87118232e-04 -1.36106566e-04 6.66205829e-04
      4.79954731e-04 -3.22357664e-04 -7.45004334e-04 0. -6.51878829e-04
      -8.30966397e-04 -9.38418962e-04 -4.29810207e-05 7.16350332e-05
      -2.79376633e-04 -4.87118232e-04</_>
    <_>
      6.40245844e-06 -2.75305705e-04 -2.56098341e-04 -5.12196675e-05
      1.92073749e-05 6.40245844e-06 -1.28049171e-04 -1.28049171e-04
      1.28049169e-05 -8.19514680e-04 -3.64940148e-04 4.16159804e-04
      5.50611410e-04 2.94513098e-04 -4.54574561e-04 -6.65855710e-04
      -1.28049169e-05 -6.01831125e-04 4.22562269e-04 7.29880296e-04
      8.45124538e-04 6.65855710e-04 -4.54574561e-04 -8.25917174e-04
      6.40245844e-06 -3.84147497e-05 3.58537683e-04 1.79268842e-04
      7.93904881e-04 5.95428632e-04 -4.41769633e-04 -8.57929466e-04 0.
      1.40854085e-04 -5.57013904e-04 -6.85063074e-04 4.48172104e-05
      1.08841792e-04 -3.84147512e-04 -7.10672874e-04 6.40245844e-06
      6.78660581e-04 4.41769633e-04 3.96952440e-04 6.08233560e-04
      5.05794247e-04 -4.48172104e-05 -3.32927855e-04 0. -8.32319638e-05
      -8.32319638e-05 -5.12196675e-05 4.41769633e-04 2.17683584e-04
      -3.26525391e-04 -4.67379461e-04 1.28049169e-05 -6.53050782e-04
      -7.74697459e-04 -8.51526973e-04 0. 1.85671292e-04 -7.04270424e-05
      -1.34451635e-04</_>
    <_>
      -7.63801927e-06 -6.87421707e-05 7.63801927e-06 1.98588488e-04
      2.82606692e-04 3.13158787e-04 1.22208308e-04 -7.63801927e-06 0.
      -2.21502545e-04 2.06226512e-04 7.86715944e-04 8.86010181e-04
      8.93648248e-04 3.36072844e-04 -7.63801872e-05 -1.52760385e-05
      4.58281138e-05 8.01992021e-04 7.79077935e-04 8.17268039e-04
      9.16562276e-04 3.28434806e-04 -8.40182111e-05 0. 7.02697726e-04
      8.32544058e-04 1.68036422e-04 7.71439925e-04 8.86010181e-04
      3.43710853e-04 -9.92942441e-05 -2.29140569e-05 4.65919147e-04
      -7.02697726e-04 -8.86010181e-04 -8.40182111e-05 7.63801927e-06
      -2.97882740e-04 -5.19385270e-04 -1.52760385e-05 4.81195195e-04
      -2.13864536e-04 -2.29140569e-04 -3.05520771e-05 1.52760385e-05
      1.14570284e-04 -7.63801872e-05 -2.29140569e-05 -2.90244730e-04
      -8.17268039e-04 -7.86715944e-04 -4.58281138e-05 7.63801927e-06
      -2.06226512e-04 -4.81195195e-04 -2.29140569e-05 -5.42299356e-04
      -1.03113253e-03 -1.07696070e-03 -9.92942441e-05 0. -3.81900958e-04
      -7.02697726e-04</_>
    <_>
      1.34797228e-05 -1.34797228e-04 -5.39188914e-05 3.50472808e-04
      5.39188914e-04 5.93107834e-04 1.75236404e-04 -1.07837783e-04
      2.69594457e-05 -6.20067236e-04 -2.56114727e-04 8.62702262e-04
      1.05141837e-03 9.16621182e-04 1.34797228e-04 -4.44830861e-04
      -1.34797228e-05 -4.98749781e-04 -5.39188914e-05 6.73986142e-05
      9.43580599e-05 -9.43580599e-05 -4.98749781e-04 -7.95303669e-04 0.
      1.03793864e-03 9.57060314e-04 9.43580599e-05 9.84019833e-04
      1.48276958e-04 -5.52668644e-04 -1.15925621e-03 0. 1.37493177e-03
      9.43580599e-05 6.73986142e-05 1.25361420e-03 2.02195850e-04
      -4.44830861e-04 -9.03141452e-04 4.04391685e-05 1.46928977e-03
      1.07837783e-03 1.25361420e-03 1.36145204e-03 2.15675565e-04
      3.23513348e-04 -5.39188914e-05 -1.34797228e-05 -1.48276958e-04
      -5.79628104e-04 -1.75236404e-04 9.84019833e-04 1.75236404e-04
      2.69594457e-05 -3.10033618e-04 -4.04391685e-05 -7.68344209e-04
      -1.36145204e-03 -9.97499563e-04 6.60506426e-04 1.34797228e-04
      -1.07837783e-04 -3.90911970e-04</_>
    <_>
      5.99552732e-06 -4.79642185e-05 -2.63803202e-04 -9.59284371e-05
      2.69798737e-04 2.81789777e-04 1.55883710e-04 4.79642185e-05
      1.19910546e-05 -1.67874765e-04 -5.51588542e-04 -7.79418551e-05
      7.97405140e-04 7.91409635e-04 4.25682432e-04 9.59284371e-05
      -5.99552732e-06 3.59731639e-05 -8.99329098e-05 -8.99329098e-05
      7.37449853e-04 8.03400646e-04 3.83713748e-04 5.39597459e-05
      1.19910546e-05 5.57584048e-04 -4.19686912e-05 -5.45592979e-04
      7.01476703e-04 7.79418566e-04 2.21834518e-04 -1.31901601e-04
      -5.99552732e-06 6.47516979e-04 -5.57584048e-04 -6.95481198e-04
      1.37897136e-04 1.97852409e-04 -3.29753995e-04 -5.93557197e-04
      5.99552732e-06 6.65503554e-04 -1.85861354e-04 -1.91856874e-04
      8.39373824e-05 1.07919492e-04 -5.39597459e-05 -2.93780846e-04 0.
      5.99552732e-05 -6.83490129e-04 -6.53512485e-04 6.23534841e-04
      6.53512485e-04 -1.79865820e-05 -3.23758490e-04 5.99552732e-06
      -1.31901601e-04 -8.45369359e-04 -8.75347003e-04 6.71499060e-04
      7.37449853e-04 3.71722708e-04 2.99776366e-05</_>
    <_>
      8.44202441e-06 -6.75361953e-05 0. 2.36376683e-04 3.20796913e-04
      3.37680976e-04 1.09746317e-04 -4.22101220e-05 1.68840488e-05
      -2.36376683e-04 2.19492635e-04 8.86412570e-04 9.87716834e-04
      9.79274861e-04 3.46123008e-04 -1.18188342e-04 0. 5.90941709e-05
      8.77970539e-04 8.77970539e-04 9.11738607e-04 1.00460090e-03
      3.37680976e-04 -1.26630359e-04 1.68840488e-05 7.85108248e-04
      9.11738607e-04 2.02608586e-04 8.61086475e-04 9.70832829e-04
      3.54565011e-04 -1.43514408e-04 0. 9.20180639e-04 1.94166554e-04 0.
      -8.44202441e-05 0. -5.31847531e-04 -9.03296634e-04 8.44202441e-06
      9.37064702e-04 7.34456116e-04 7.26014085e-04 -2.53260732e-05
      8.44202441e-06 -7.59782197e-05 -4.13659203e-04 0. 8.44202441e-05
      6.75361953e-05 1.09746317e-04 -4.22101220e-05 0. -4.30543238e-04
      -8.61086475e-04 0. -1.94166554e-04 -1.68840488e-04 -2.11050603e-04
      -1.01304293e-04 -8.44202441e-06 -6.24709821e-04 -1.10590516e-03</_>
    <_>
      -7.75510198e-05 6.72944225e-05 -2.52636644e-04 -4.12602152e-04
      -3.98011704e-04 -2.33182669e-04 6.29605493e-05 2.08008150e-03
      -2.40526369e-05 4.02345555e-04 9.72697853e-06 2.76954088e-04
      8.10613856e-04 1.30023737e-03 1.25080813e-03 2.77751102e-03
      1.45639860e-04 -1.98608628e-04 2.94233998e-03 2.64186296e-03
      1.52696774e-03 1.43482629e-03 5.71773271e-04 5.13676205e-04
      -1.43256584e-05 1.74556000e-04 1.00277015e-03 7.02293066e-04
      1.49444124e-04 -1.71281354e-04 -3.55829136e-04 -5.29855490e-04
      -2.89161271e-05 -5.25428029e-03 -1.33242819e-03 7.96023407e-04
      3.21519910e-04 -3.14008328e-04 3.75838681e-05 -7.19531614e-04 0.
      -8.72134697e-03 -3.24821030e-03 -6.05817710e-04 -9.44143452e-04
      -5.17215638e-04 1.25514192e-03 -7.18737196e-04 -2.89161271e-05
      2.86513168e-05 -5.48779848e-04 2.56440893e-04 1.06219121e-03
      7.08480598e-04 -2.23985306e-04 -2.19651440e-04 -4.35065958e-05
      9.55459313e-04 4.85024881e-04 -2.22926072e-04 -3.20195861e-04
      -2.77218875e-04 -9.46526707e-04 -4.08003485e-04</_>
    <_>
      -1.97242716e-05 -2.00718394e-04 -2.13325126e-04 -2.33049388e-04
      -2.20644011e-04 -2.29591285e-04 -5.53120153e-05 6.89430672e-05
      9.43578634e-05 7.46283156e-04 6.94227871e-04 5.71014709e-04
      4.62640688e-04 2.13946740e-04 -6.85481995e-04 -8.27631622e-04
      9.25281347e-05 1.15379563e-03 7.91824947e-04 3.42430169e-04
      -2.09044039e-04 -6.97484647e-04 -8.26003205e-04 -4.41471813e-04
      1.08592962e-04 1.12369703e-03 8.57292325e-04 2.46846641e-04
      -3.66453081e-04 -5.89951174e-04 -1.48899620e-04 5.20201174e-05
      6.93457623e-05 8.38828855e-04 3.05853260e-04 -2.74493854e-04
      -1.91919753e-04 3.71136877e-04 6.77725242e-04 3.56008502e-04
      1.08420217e-19 4.81944662e-05 -7.29815627e-04 -1.05801073e-03
      -4.62990662e-04 5.29351295e-04 8.86988186e-04 6.92161673e-04
      7.82930365e-05 7.04383245e-04 -4.23393474e-04 -8.00387061e-04
      -7.64457363e-05 8.23166745e-04 7.68423663e-04 5.42491791e-04
      3.90458445e-05 6.66379347e-04 1.78341419e-04 -9.14862358e-06
      2.69022246e-04 4.53237997e-04 2.91162723e-04 6.46444169e-05</_>
    <_>
      -7.25114296e-05 -7.77412206e-05 -1.21455305e-04 -9.26579596e-05
      -1.58229086e-04 -2.34210660e-04 -6.45349937e-05 7.28731829e-05
      6.69690126e-05 -8.29218843e-05 5.75946870e-05 4.17405186e-04
      3.26868612e-04 -5.63053298e-04 -2.14240095e-03 -1.97588280e-03
      4.51119704e-05 -6.66072592e-05 -1.01670528e-04 5.27003023e-04
      8.84017732e-04 -2.11991864e-04 -2.74714525e-03 -3.26166535e-03
      1.24563696e-04 3.86848202e-04 -1.91894462e-04 6.21679192e-06
      2.43174101e-04 -1.29480875e-04 -5.31607540e-04 -4.06548206e-05
      -1.24827184e-05 -1.40475482e-03 -1.70764502e-03 -1.45644532e-03
      -1.22327078e-03 -9.18670092e-04 -1.91220097e-04 2.54571554e-04
      -2.53271937e-05 -2.57296325e-03 -1.56924978e-03 -4.93699394e-04
      1.39297408e-05 2.09968741e-04 9.85129955e-05 -2.26957738e-04
      3.81716673e-05 -1.22491430e-04 3.81225327e-05 3.70171823e-04
      7.44224642e-04 6.84557715e-04 -1.42637975e-04 -5.10424899e-04
      2.77612126e-05 -2.60886620e-04 -9.99108815e-05 -7.97643497e-06
      -2.67250798e-05 -2.73780228e-04 -5.67657815e-04 -8.57341802e-04</_>
    <_>
      -1.04854480e-05 -2.33231884e-04 -2.54202780e-04 -2.31110200e-04
      -2.62566551e-04 -3.12933582e-04 -2.52142581e-05 3.50632006e-04
      9.24317865e-05 4.18188392e-06 1.97286266e-04 5.03977761e-04
      3.76153650e-04 -2.68132397e-04 -1.32421032e-03 -1.16280816e-03
      6.51573282e-05 2.94576184e-05 5.66460134e-04 8.56116705e-04
      8.89756193e-04 1.55221525e-04 -1.84273242e-03 -2.21415097e-03
      8.82499007e-05 6.29741699e-05 6.54402655e-04 1.53167464e-03
      1.77502306e-03 7.77798938e-04 -9.99899115e-04 -1.46974565e-03
      5.25501964e-05 -5.09543577e-04 -1.17486203e-03 -1.35523628e-03
      -1.01496675e-03 -5.76576684e-04 -5.35741507e-04 -8.59344960e-04
      5.42101086e-20 -1.15401410e-04 -5.81373344e-04 -7.19744363e-04
      -2.19764072e-04 1.58142400e-04 -4.57731134e-04 -5.54652186e-04
      3.57611825e-05 1.13304320e-03 7.00464821e-04 3.01956316e-04
      2.18503075e-04 7.58886817e-05 -4.47491591e-04 -2.02205876e-04
      8.40065404e-05 -2.49529083e-04 -9.01256717e-05 -1.88492158e-05
      2.29696216e-05 -9.06789719e-05 -2.10446698e-04 2.06020322e-05</_>
    <_>
      -2.51343372e-05 1.01265832e-04 1.69383537e-04 1.11962006e-04
      1.01133381e-04 1.33420574e-04 3.58834892e-04 4.94606735e-04
      7.50718827e-05 1.06193405e-03 1.03673351e-03 8.56521365e-04
      7.66282785e-04 7.91417144e-04 3.98142496e-04 1.97796282e-04
      8.22247384e-05 1.12624350e-03 7.14391354e-04 3.69862188e-04
      2.76411476e-04 2.40580965e-04 -1.03650418e-05 -1.89848710e-04
      8.93775941e-05 1.10130792e-03 8.40526656e-04 7.86582183e-04
      7.22272729e-04 4.25594742e-04 2.00047958e-04 7.37802475e-05
      3.56318305e-05 2.64258328e-04 -6.57565892e-04 -7.72673870e-04
      -5.33152488e-04 -3.20851803e-04 -3.57046782e-04 -4.95765882e-04
      -3.22871929e-05 -5.27423690e-04 -1.43841933e-03 -1.41729182e-03
      -9.66728141e-04 -4.25462291e-04 -1.50011314e-04 -1.52495006e-04
      2.48694323e-05 3.70127091e-04 -7.55586661e-04 -9.28447291e-04
      -5.67526033e-04 -1.69582214e-04 -2.24619609e-04 -3.20752704e-04
      2.49356599e-05 2.57701526e-04 -1.61767093e-04 -8.26220930e-05
      -1.71867228e-04 -5.47624019e-04 -7.91152241e-04 -9.06525122e-04</_>
    <_>
      -1.34598695e-05 4.14372946e-04 4.50184889e-04 4.36725008e-04
      4.59077099e-04 5.21808746e-04 6.60245714e-04 6.79228455e-04
      1.10318833e-04 1.72067503e-03 1.03951874e-03 5.90775395e-04
      2.75189203e-04 1.00454046e-04 4.32626257e-05 4.51904270e-05
      9.68589593e-05 1.22458767e-03 -7.49410829e-04 -1.20656006e-03
      -1.50243414e-03 -2.12374167e-03 -1.57694099e-03 -1.28876080e-03
      8.33990925e-05 1.81320950e-03 1.14792713e-03 1.48537918e-03
      1.16595475e-03 -7.04689301e-04 -6.10227056e-04 -7.90016202e-04
      6.10470233e-05 1.01619412e-03 4.83096432e-04 6.29227201e-04
      4.94142238e-04 -7.88366306e-04 -7.18496522e-05 -9.77968084e-05
      4.18211166e-05 -8.22007278e-05 -4.91276558e-04 -2.52611353e-04
      -1.79077062e-04 -1.15923351e-03 9.01377061e-05 3.44920030e-04
      1.92259049e-05 1.46422547e-03 2.69926823e-04 2.84341921e-04
      3.42974847e-04 -3.62218125e-04 5.76134538e-04 8.32115184e-04
      -3.12616339e-06 6.19379804e-04 2.99955369e-04 1.20824471e-03
      1.05923100e-03 -4.87420970e-04 -1.68951767e-04 -1.21607751e-04</_>
    <_>
      -4.11620522e-06 1.33658876e-04 -2.38067325e-04 -2.60824221e-04
      1.92844833e-04 2.02165189e-04 4.07919666e-04 4.91421612e-04
      7.17701332e-05 9.30947426e-04 -2.13280189e-04 -3.79016332e-04
      7.57685571e-04 7.61801784e-04 5.93474368e-04 4.35409602e-04
      6.76539348e-05 9.65436164e-04 -4.77985071e-04 -7.54331821e-04
      3.96423449e-04 3.48733709e-04 2.04576645e-04 3.48699577e-05
      8.21784342e-05 9.61084384e-04 -3.05721245e-04 -3.30418494e-04
      8.28098040e-04 6.01055857e-04 2.21478476e-04 7.11192042e-05
      3.86049251e-05 6.12440577e-04 -6.26314140e-04 -7.30542757e-04
      -2.43854141e-04 -4.99213675e-05 -3.82078724e-04 -5.88539930e-04
      -5.42101086e-20 -1.23486152e-05 -1.26671570e-03 -1.25692424e-03
      -7.45684083e-04 -3.15388723e-04 -3.23890825e-04 -4.16331895e-04
      3.86049251e-05 7.95639586e-04 -6.58189936e-04 -8.28277844e-04
      5.02065464e-04 8.16164829e-04 9.15545606e-05 -9.88230531e-05
      5.09535421e-05 6.53131458e-04 -2.10868733e-04 -1.23104910e-04
      1.03105989e-03 7.28602463e-04 4.33996174e-04 1.68528844e-04</_>
    <_>
      -5.18048228e-06 1.71238935e-04 2.11975261e-04 1.86355857e-04
      1.60594951e-04 1.70814412e-04 3.17086204e-04 3.91963316e-04
      7.06871651e-05 1.02208729e-03 9.70706984e-04 7.63629214e-04
      6.23897708e-04 6.29078189e-04 3.42139596e-04 1.85506826e-04
      7.57261441e-05 1.06211612e-03 7.06699153e-04 3.99690907e-04
      2.86710856e-04 2.35755069e-04 -8.94589812e-06 -1.98359645e-04
      8.07651159e-05 1.05246273e-03 8.72050121e-04 8.40967230e-04
      7.90718943e-04 5.74467529e-04 3.76673910e-04 1.90459556e-04
      4.52092754e-05 6.45044143e-04 4.66698926e-04 3.43074877e-04
      -6.71340094e-04 -4.39350464e-04 -4.49317886e-04 -6.39666920e-04
      5.42101086e-20 -1.55414473e-05 -1.78345246e-04 -1.79618801e-04
      -1.04272296e-03 -5.84262481e-04 -3.35119519e-04 -4.03118058e-04
      3.49898182e-05 8.91073956e-04 5.66456874e-04 3.59945145e-04
      -5.84773195e-04 -2.48380151e-04 -3.48113856e-04 -5.34838939e-04
      4.03118065e-05 6.87903084e-04 9.95335868e-04 1.09823793e-03
      -1.26681931e-04 -4.30294021e-04 -8.63276655e-04 -1.17169996e-03</_>
    <_>
      -1.17719073e-05 2.35438147e-05 2.94297679e-05 2.35438147e-05
      1.76578615e-05 0. -2.35438147e-05 -1.94236476e-04 1.17719073e-05
      4.70876286e-04 4.47332481e-04 1.82464573e-04 -3.53157229e-05
      -2.29552199e-04 -5.53279649e-04 -6.47454930e-04 -5.88595367e-06
      7.29858293e-04 4.06130799e-04 1.05947169e-04 -2.11894338e-04
      -5.17963956e-04 -5.06192038e-04 -2.70753866e-04 1.17719073e-05
      7.18086376e-04 7.00428500e-04 2.94297701e-04 -1.76578615e-05
      7.06314459e-05 4.64990357e-04 4.70876286e-04 0. 6.88656582e-04
      8.82893073e-05 -5.06192038e-04 -5.82709443e-04 -4.12016780e-05
      7.76945904e-04 8.53463309e-04 0. 6.41568971e-04 -2.17780296e-04
      -7.00428500e-04 -5.70937525e-04 -3.53157229e-05 6.23911095e-04
      8.53463309e-04 5.88595367e-06 5.82709443e-04 2.94297679e-05
      -4.06130799e-04 -2.64867907e-04 3.00183630e-04 7.94603780e-04
      7.88717822e-04 -5.88595367e-06 2.53096019e-04 1.76578615e-05
      -1.17719073e-05 2.64867907e-04 5.65051567e-04 5.88595401e-04
      2.88411742e-04</_>
    <_>
      -5.24569514e-05 -2.62284757e-05 2.62284757e-05 1.04913903e-04
      2.62284757e-05 -1.04913903e-04 -7.86854289e-05 -6.29483431e-04
      5.24569514e-05 -2.09827806e-04 5.24569514e-05 2.62284768e-04
      -5.24569514e-05 -1.12782454e-03 -2.62284768e-03 -2.88513233e-03
      -2.62284757e-05 -2.62284757e-05 -9.96682094e-04 -2.62284768e-04
      4.45884099e-04 -6.55711920e-04 -2.99004628e-03 -3.51461582e-03
      1.04913903e-04 3.40970204e-04 -4.19655611e-04 -1.31142384e-04
      3.14741716e-04 1.31142384e-04 -1.83599332e-04 3.14741716e-04
      -2.62284757e-05 1.04913903e-04 -1.44256616e-03 -1.88845024e-03
      -1.57370861e-03 -9.96682094e-04 -5.24569514e-05 7.60625815e-04
      -2.62284757e-05 1.04913903e-04 -5.77026454e-04 -3.40970204e-04
      1.57370858e-04 1.83599332e-04 -2.36056279e-04 1.57370858e-04
      2.62284757e-05 -7.86854289e-05 3.40970204e-04 3.67198663e-04
      3.67198663e-04 3.93427152e-04 5.24569514e-05 -2.62284768e-04
      2.62284757e-05 -6.29483431e-04 -2.88513227e-04 5.24569514e-05
      1.04913903e-04 -7.86854289e-05 -1.31142384e-04 -6.55711920e-04</_>
    <_>
      0. -4.10739485e-05 -1.36913159e-05 2.73826317e-05 -1.36913159e-05
      -8.21478970e-05 -1.36913159e-05 -1.50604465e-04 2.73826317e-05
      -5.47652635e-05 1.50604465e-04 1.91678424e-04 -1.09530527e-04
      -7.11948436e-04 -1.30067498e-03 -1.31436635e-03 -2.73826317e-05
      1.36913159e-05 6.84565748e-05 3.28591588e-04 5.06578654e-04
      -6.84565748e-05 -1.51973602e-03 -1.83463632e-03 1.36913159e-05
      1.36913159e-05 5.75035228e-04 1.31436635e-03 1.65664917e-03
      1.10899657e-03 -2.19061054e-04 -7.11948436e-04 0. 2.19061054e-04
      -9.44700791e-04 -1.50604476e-03 -1.31436635e-03 -7.25639751e-04
      -1.09530527e-04 -1.36913159e-05 0. 1.34174898e-03 9.58392120e-05
      -5.33961284e-04 -3.55974218e-04 -2.05369739e-04 -4.51813423e-04
      1.36913159e-05 -1.36913159e-05 1.04053994e-03 9.31009476e-04
      3.42282903e-04 -1.36913150e-04 -2.46443669e-04 -5.47652635e-05
      2.87517614e-04 4.10739485e-05 -4.79196053e-04 -2.19061054e-04 0.
      1.36913150e-04 2.19061054e-04 3.14900273e-04 3.01208929e-04</_>
    <_>
      -1.78700666e-05 2.76986044e-04 3.57401324e-04 3.21661209e-04
      2.94856087e-04 3.03791137e-04 3.12726159e-04 7.14802663e-05 0.
      8.48828175e-04 8.48828175e-04 4.64621728e-04 1.96570734e-04
      1.69765641e-04 1.78700662e-04 -1.78700666e-05 -1.78700666e-05
      9.02438362e-04 3.93141469e-04 1.07220403e-04 1.07220403e-04
      9.82853671e-05 2.68051008e-05 -1.42960533e-04 0. 8.84568319e-04
      8.48828175e-04 8.04152980e-04 8.75633268e-04 9.29243455e-04
      8.75633268e-04 6.16517325e-04 -2.68051008e-05 4.91426850e-04
      -6.61192462e-04 -1.06326898e-03 -1.01859379e-03 -6.16517325e-04
      1.16155432e-04 3.75271396e-04 -2.68051008e-05 4.91426850e-04
      -8.04152980e-04 -1.17048935e-03 -1.11687917e-03 -8.22023081e-04
      -9.82853671e-05 3.84206447e-04 -3.57401332e-05 4.55686706e-04
      -2.32310864e-04 -6.25452318e-04 -7.59477844e-04 -4.55686706e-04
      1.78700662e-04 2.76986044e-04 -1.78700666e-05 -3.57401332e-05
      -2.68050993e-04 -7.14802663e-05 -2.68051008e-05 -1.16155432e-04
      -1.42960533e-04 -4.37816634e-04</_>
    <_>
      0. 4.15705348e-04 4.84989578e-04 4.98846406e-04 4.98846406e-04
      5.12703264e-04 4.43419034e-04 1.38568448e-05 2.77136896e-05
      1.08083396e-03 6.78985380e-04 1.80138988e-04 -2.21709517e-04
      -4.15705348e-04 -1.93995831e-04 -3.46421119e-04 -1.38568448e-05
      8.03696981e-04 -9.00694926e-04 -1.17783179e-03 -1.21940230e-03
      -1.60739396e-03 -1.06697704e-03 -8.86838068e-04 0. 1.16397499e-03
      7.89840182e-04 1.03926333e-03 9.69979155e-04 -1.38568448e-05
      1.66282145e-04 -5.54273793e-05 0. 1.33025716e-03 3.46421119e-04
      2.77136896e-05 -1.38568445e-04 -7.62126467e-04 2.63280061e-04
      5.95844351e-04 2.77136896e-05 1.39954139e-03 2.49423203e-04
      -1.10854759e-04 -2.77136889e-04 -1.08083396e-03 -2.77136896e-05
      6.78985380e-04 -2.77136896e-05 1.08083396e-03 5.26560121e-04
      2.77136889e-04 -8.31410725e-05 -5.40416979e-04 6.78985380e-04
      9.83836013e-04 -2.77136896e-05 1.38568445e-04 5.54273793e-05
      8.17553839e-04 8.17553839e-04 -4.15705363e-05 3.60277976e-04
      1.93995831e-04</_>
    <_>
      0. 2.42231559e-04 -3.78486802e-05 -4.54184155e-05 3.10359173e-04
      3.02789442e-04 3.40638129e-04 1.28685511e-04 1.51394725e-05
      7.26694649e-04 -1.81673662e-04 -4.84463118e-04 2.95219710e-04
      2.57371023e-04 3.55777593e-04 1.81673662e-04 -7.56973623e-06
      7.64543365e-04 -5.75299957e-04 -7.94822292e-04 2.11952618e-04
      1.89243408e-04 1.81673662e-04 3.02789449e-05 1.51394725e-05
      7.56973634e-04 -1.58964467e-04 -1.74103930e-04 8.62949935e-04
      8.93228862e-04 6.81276259e-04 4.54184163e-04 -7.56973623e-06
      7.72113097e-04 -5.67730225e-04 -9.00798594e-04 -6.05578884e-04
      -2.80080247e-04 -2.27092078e-05 8.32670994e-05 0. 7.79682829e-04
      -7.03985454e-04 -1.00677495e-03 -8.09961755e-04 -5.75299957e-04
      -2.64940754e-04 3.02789449e-05 -7.56973623e-06 7.49403902e-04
      -2.49801291e-04 -5.75299957e-04 1.89243408e-04 4.31474968e-04
      3.33068398e-04 3.02789442e-04 1.51394725e-05 3.40638129e-04
      -2.72510515e-04 -9.84065700e-05 9.23507789e-04 8.32671009e-04
      7.26694649e-04 3.63347324e-04</_>
    <_>
      0. 2.77804298e-04 3.38573998e-04 3.29892617e-04 2.95167061e-04
      2.86485680e-04 2.77804298e-04 3.47255373e-05 1.73627686e-05
      8.33412923e-04 8.16050160e-04 4.68794751e-04 1.99671849e-04
      1.56264927e-04 1.47583531e-04 -5.20883077e-05 0. 8.85501213e-04
      3.73299525e-04 1.21539386e-04 1.12857997e-04 8.68138450e-05 0.
      -1.73627690e-04 1.73627686e-05 8.68138450e-04 8.16050160e-04
      7.98687397e-04 8.59457068e-04 8.94182594e-04 8.24731542e-04
      5.64289978e-04 0. 8.94182594e-04 3.55936761e-04 -2.60441539e-05
      -9.80996410e-04 -6.07696944e-04 -9.54952266e-05 2.60441539e-05 0.
      8.94182594e-04 2.17034612e-04 -1.30220767e-04 -1.07649167e-03
      -8.07368779e-04 -3.03848472e-04 3.47255373e-05 -8.68138432e-06
      8.59457068e-04 7.72643194e-04 3.99343699e-04 -7.29236286e-04
      -4.51431988e-04 -3.47255373e-05 -6.94510745e-05 8.68138432e-06
      3.81980906e-04 7.37917668e-04 9.37589502e-04 -1.73627686e-05
      -1.21539386e-04 -3.47255380e-04 -7.63961812e-04</_>
    <_>
      0. -3.19200226e-05 -2.55360173e-05 0. -1.27680087e-05
      -2.55360173e-05 6.38400434e-06 5.74560399e-05 0. -5.61792345e-04
      -4.72416315e-04 -1.34064088e-04 2.55360173e-05 -2.55360173e-05
      -3.83040242e-05 0. 0. -7.98000547e-04 -6.83088438e-04
      -1.78752118e-04 3.38352227e-04 4.02192265e-04 -1.78752118e-04
      -5.61792345e-04 1.27680087e-05 -6.95856463e-04 -8.61840555e-04
      -3.51120223e-04 9.57600641e-05 -4.46880294e-05 -5.49024378e-04
      -4.34112299e-04 -6.38400434e-06 -7.21392455e-04 -4.46880294e-04
      8.93760589e-05 2.48976168e-04 -1.97904126e-04 -8.55456572e-04
      -7.40544463e-04 -6.38400434e-06 -6.70320471e-04 9.57600641e-05
      6.76704454e-04 6.57552446e-04 8.29920536e-05 -7.34160480e-04
      -8.87376606e-04 0. -6.51168404e-04 5.10720347e-05 5.29872370e-04
      3.76656244e-04 -2.29824160e-04 -8.49072589e-04 -9.19296639e-04
      1.27680087e-05 -4.27728286e-04 -8.93760589e-05 2.55360173e-05
      -2.61744164e-04 -6.32016396e-04 -6.70320471e-04 -4.72416315e-04</_>
    <_>
      1.29713462e-05 -4.53997127e-05 -3.89140405e-05 -1.29713462e-05
      -2.59426924e-05 -3.89140405e-05 1.94570202e-05 1.42684803e-04 0.
      -5.44796523e-04 -4.21568751e-04 -1.10256442e-04 -1.29713462e-05
      -8.43137532e-05 -6.48567311e-06 9.07994254e-05 -6.48567311e-06
      -7.97737797e-04 -4.15083079e-04 3.89140405e-05 4.73454129e-04
      5.38310851e-04 -1.62141834e-04 -5.70739212e-04 -6.48567311e-06
      -7.84766453e-04 -4.99396818e-04 2.98340950e-04 8.04223469e-04
      4.47511440e-04 -6.16138976e-04 -8.56108847e-04 0. -6.55053009e-04
      -5.44796523e-04 -1.55656162e-04 1.94570202e-05 -2.98340950e-04
      -9.07994225e-04 -9.46908258e-04 0. -7.13424015e-05 2.85369606e-04
      5.18853834e-04 4.60482785e-04 -5.83710571e-05 -9.01508552e-04
      -9.33936913e-04 -1.29713462e-05 -1.49170475e-04 4.08597407e-04
      6.09653303e-04 2.26998556e-04 -4.47511440e-04 -9.01508552e-04
      -7.32881075e-04 2.59426924e-05 -5.05882490e-04 -1.23227786e-04
      1.29713462e-05 -2.26998556e-04 -5.18853834e-04 -4.99396818e-04
      -1.75113179e-04</_>
    <_>
      0. 2.23500683e-04 2.89723102e-04 2.64889706e-04 2.48334080e-04
      2.81445304e-04 3.22834327e-04 3.39389924e-04 -1.65556066e-05
      1.24167040e-04 1.57278264e-04 1.73833861e-04 2.31778482e-04
      4.80112591e-04 9.43669525e-04 8.94002733e-04 -8.27780332e-06
      -1.90389474e-04 -2.06945071e-04 -4.96668181e-05 3.97334545e-04
      8.19502515e-04 7.36724469e-04 2.48334080e-04 -1.65556066e-05
      -1.90389474e-04 -1.98667272e-04 3.31112125e-04 8.36058112e-04
      7.61557894e-04 1.57278264e-04 -9.10558374e-05 -2.48334090e-05
      -5.13223815e-04 -7.36724469e-04 -2.73167505e-04 -1.24167040e-04
      -5.13223815e-04 -9.85058607e-04 -8.52613710e-04 -2.48334090e-05
      -4.47001366e-04 -4.38723568e-04 -9.93336362e-05 -2.31778482e-04
      -7.11891043e-04 -9.68502951e-04 -8.44335940e-04 -4.13890157e-05
      -3.97334545e-04 -2.56611907e-04 -8.27780332e-06 -3.31112125e-04
      -8.44335940e-04 -9.51947353e-04 -8.52613710e-04 -8.27780332e-06
      -3.89056746e-04 -2.73167505e-04 -4.96668181e-05 -3.97334545e-04
      -9.02280561e-04 -9.60225181e-04 -8.11224687e-04</_>
    <_>
      1.79213876e-05 2.32978040e-04 2.68820819e-04 2.86742201e-04
      2.95702892e-04 3.31545685e-04 3.22584994e-04 3.04663583e-04 0.
      -1.79213876e-05 -2.41938731e-04 -1.61292497e-04 -8.96069396e-05
      8.06462485e-05 7.16855517e-04 7.61659001e-04 0. -5.91405784e-04
      -1.20073301e-03 -9.22951498e-04 -4.65956080e-04 -2.50899437e-04
      8.06462485e-05 -1.61292497e-04 -1.79213876e-05 -3.40506376e-04
      -5.55563020e-04 2.24017349e-04 6.54130650e-04 -1.16489020e-04
      -6.00366504e-04 -7.52698281e-04 0. -1.88174570e-04 8.96069396e-05
      7.88541045e-04 7.97501765e-04 -4.30113316e-04 -1.01255847e-03
      -9.13990778e-04 1.79213876e-05 -7.16855502e-05 4.92838153e-04
      9.94637026e-04 6.89973414e-04 -6.45169988e-04 -9.67754924e-04
      -8.60226632e-04 -2.68820822e-05 -1.88174570e-04 2.95702892e-04
      7.97501765e-04 3.49467067e-04 -8.06462427e-04 -7.70619663e-04
      -5.64523740e-04 -8.96069378e-06 -2.95702892e-04 8.96069378e-06
      5.46602358e-04 1.25449718e-04 -8.87108676e-04 -6.63091370e-04
      -3.13624274e-04</_>
    <_>
      1.25491770e-05 1.75688474e-04 -6.27458867e-05 -6.27458867e-05
      2.38434368e-04 2.50983547e-04 3.07454844e-04 3.13729426e-04 0.
      1.00393416e-04 -6.27458852e-04 -5.96085913e-04 2.82356486e-04
      4.58044960e-04 8.84716981e-04 8.40794877e-04 0. -1.44315534e-04
      -9.09815368e-04 -7.71774387e-04 4.01573663e-04 7.09028507e-04
      6.90204732e-04 3.13729426e-04 0. -1.38040952e-04 -8.78442370e-04
      -4.58044960e-04 7.34126836e-04 6.65106403e-04 6.90204761e-05
      -1.25491773e-04 -6.27458849e-06 -9.41188264e-05 -5.64712973e-04
      -2.07061428e-04 1.19217184e-04 -1.88237653e-04 -8.47069430e-04
      -8.40794877e-04 0. -3.76475327e-05 -3.51376948e-04 -8.78442370e-05
      -6.27458867e-05 -4.39221185e-04 -8.84716981e-04 -8.84716981e-04
      -1.25491770e-05 0. -2.38434368e-04 -4.39221185e-05 4.39221185e-04
      3.76475327e-05 -5.70987584e-04 -5.89811301e-04 1.88237664e-05
      1.25491770e-05 -2.44708965e-04 -6.90204761e-05 4.83143318e-04
      8.78442370e-05 -2.50983539e-05 -6.27458849e-06</_>
    <_>
      1.18292101e-05 1.65608944e-04 2.01096569e-04 2.01096569e-04
      1.83352749e-04 1.95181958e-04 2.12925777e-04 2.18840389e-04 0.
      9.46336804e-05 1.06462889e-04 1.36035917e-04 1.71523541e-04
      3.37132486e-04 6.56521122e-04 6.15118886e-04 5.91460503e-06
      -1.30121305e-04 -1.53779722e-04 -2.36584201e-05 2.89815653e-04
      5.79631305e-04 5.08656027e-04 1.53779722e-04 0. -1.30121305e-04
      -1.47865125e-04 2.48413417e-04 6.03289693e-04 5.38229069e-04
      9.46336804e-05 -8.87190763e-05 0. -8.28044722e-05 1.53779722e-04
      4.90912236e-04 -8.28044722e-05 -3.72620125e-04 -8.45788512e-04
      -8.39873916e-04 0. -3.54876283e-05 3.66705499e-04 6.15118886e-04
      -1.59694333e-04 -5.14570624e-04 -8.33959319e-04 -8.33959319e-04
      -1.18292101e-05 0. 4.96826833e-04 6.80179568e-04 -2.30669597e-04
      -6.09204290e-04 -8.22130067e-04 -8.39873916e-04 1.18292101e-05
      5.91460503e-06 4.84997610e-04 6.50606526e-04 -2.77986430e-04
      -6.50606526e-04 -8.28044664e-04 -8.10300873e-04</_>
    <_>
      5.53089703e-05 -5.53089703e-05 -5.53089703e-05 -5.53089703e-05
      -5.53089703e-05 -5.53089703e-05 5.53089703e-05 3.59508296e-04 0.
      1.10617941e-04 2.48890370e-04 1.10617941e-04 -1.65926904e-04
      -2.48890370e-04 1.38272429e-04 3.87162785e-04 -2.76544852e-05
      5.53089703e-05 1.18914281e-03 9.40252503e-04 5.53089718e-04
      5.53089718e-04 8.29634519e-05 0. -8.29634519e-05 -3.31853807e-04
      1.60396018e-03 2.79310299e-03 3.01433890e-03 2.10174080e-03
      -2.48890370e-04 -1.76988705e-03 2.76544852e-05 3.31853807e-04
      -3.87162785e-04 -1.05087040e-03 -9.95561481e-04 -4.14817274e-04
      -1.65926904e-04 -8.29634548e-04 2.76544852e-05 2.59952154e-03
      8.01980088e-04 -7.19016592e-04 -8.84943525e-04 -6.08398695e-04
      -6.63707615e-04 -1.38272429e-04 -5.53089703e-05 2.18470441e-03
      1.52099668e-03 3.04199348e-04 -6.63707615e-04 -9.12597985e-04
      -1.65926904e-04 8.57289007e-04 5.53089703e-05 -3.04199348e-04
      -1.38272429e-04 -5.53089703e-05 1.65926904e-04 5.25435200e-04
      7.74325570e-04 1.29976077e-03</_>
    <_>
      0. 2.50861369e-04 3.05737281e-04 2.50861369e-04 2.50861369e-04
      2.97897874e-04 2.97897874e-04 2.50861369e-04 -1.56788356e-05
      8.07459990e-04 7.29065796e-04 3.29255534e-04 1.88146019e-04
      4.86043864e-04 9.40730097e-04 8.46657087e-04 -7.83941778e-06
      7.99620582e-04 6.42832252e-04 1.72467189e-04 -3.91970862e-05
      2.82219029e-04 9.17211815e-04 9.25051223e-04 -3.13576711e-05
      6.74189883e-04 8.70175310e-04 7.44744670e-04 6.74189883e-04
      7.76102301e-04 8.23138806e-04 4.46846796e-04 -1.56788356e-05
      3.99810291e-04 -1.48948937e-04 -3.68452631e-04 -4.23328544e-04
      -2.43021932e-04 1.17591262e-04 1.01912425e-04 -1.56788356e-05
      3.99810291e-04 -5.33080369e-04 -9.25051223e-04 -1.02696370e-03
      -7.76102301e-04 -1.56788356e-05 2.90058437e-04 -3.91970862e-05
      4.23328544e-04 -3.05737281e-04 -6.58511068e-04 -7.76102301e-04
      -5.17401553e-04 1.41109515e-04 3.21416126e-04 -2.35182524e-05
      1.56788345e-04 -1.48948937e-04 -7.83941723e-05 -5.48759199e-05
      -7.83941723e-05 -8.62335946e-05 -1.88146019e-04</_>
    <_>
      2.45721385e-05 3.80868121e-04 4.17726347e-04 3.93154216e-04
      4.30012413e-04 5.03728807e-04 4.30012413e-04 3.07151728e-04 0.
      1.05660188e-03 5.77445258e-04 3.68582077e-05 -1.72004962e-04
      1.59718897e-04 1.05660188e-03 1.04431587e-03 0. 7.24878046e-04
      -3.31723859e-04 -9.21455154e-04 -1.29003718e-03 -1.11803226e-03
      4.54584544e-04 8.60024826e-04 -4.91442770e-05 8.72310891e-04
      8.96883023e-04 9.82885482e-04 7.12591980e-04 -7.37164155e-05
      2.33435305e-04 -1.96577108e-04 1.22860692e-05 1.13031839e-03
      9.82885482e-04 9.09169088e-04 6.14303455e-04 -2.08863174e-04
      2.58007436e-04 1.72004962e-04 3.68582077e-05 1.19174866e-03
      4.91442741e-04 6.14303426e-05 -3.19437793e-04 -1.04431587e-03
      8.60024811e-05 5.28300938e-04 -3.68582077e-05 9.95171606e-04
      3.07151728e-04 7.37164155e-05 -2.45721370e-04 -6.63447718e-04
      5.77445258e-04 9.95171606e-04 -3.68582077e-05 4.17726347e-04
      1.84291028e-04 7.00305915e-04 6.75733783e-04 0. 3.80868121e-04
      4.79156675e-04</_>
    <_>
      1.27222011e-05 2.09916325e-04 -3.81666032e-05 -6.36110053e-05
      2.54444021e-04 2.79888423e-04 3.05332826e-04 2.60805129e-04 0.
      6.61554455e-04 -1.65388614e-04 -4.70721454e-04 2.60805129e-04
      4.89804719e-04 9.35081800e-04 8.52387457e-04 0. 6.48832240e-04
      -2.41721820e-04 -6.04304543e-04 6.99721058e-05 3.18055041e-04
      8.77831888e-04 8.77831888e-04 -1.27222011e-05 5.53415739e-04
      -3.18055027e-05 -1.14499810e-04 6.48832240e-04 7.18804367e-04
      6.17026759e-04 3.05332826e-04 0. 6.23387867e-04 -1.27222011e-04
      -2.98971718e-04 -1.27222011e-04 6.36110053e-06 -6.36110053e-06
      -1.14499810e-04 6.36110053e-06 6.29748974e-04 -4.51638130e-04
      -7.63332064e-04 -7.18804367e-04 -5.27971366e-04 -1.65388614e-04
      -1.27222011e-05 -1.27222011e-05 6.48832240e-04 -2.92610639e-04
      -5.72499062e-04 6.99721058e-05 2.67166237e-04 2.67166237e-04
      3.18055041e-04 6.36110053e-06 4.38915944e-04 -1.59027521e-04
      -9.54165080e-05 7.50609848e-04 7.18804367e-04 6.42471132e-04
      4.64360346e-04</_>
    <_>
      1.36795634e-05 2.25712793e-04 2.59911700e-04 2.32552571e-04
      2.25712793e-04 2.53071921e-04 2.39392350e-04 1.91513886e-04 0.
      7.11337256e-04 6.29259914e-04 3.00950400e-04 1.70994535e-04
      4.17226664e-04 8.00254464e-04 7.11337256e-04 6.83978169e-06
      7.04497506e-04 5.54022321e-04 1.64154757e-04 -2.73591268e-05
      2.39392350e-04 7.79735099e-04 7.79735099e-04 -1.36795634e-05
      5.95060992e-04 7.52375985e-04 6.63458835e-04 5.95060992e-04
      6.70298585e-04 6.97657699e-04 3.62508436e-04 6.83978169e-06
      6.77138392e-04 6.56619028e-04 4.71944921e-04 -3.62508436e-04
      -2.18873014e-04 -6.15580357e-05 -1.77834314e-04 6.83978169e-06
      6.77138392e-04 3.21469735e-04 -1.36795634e-05 -8.89171613e-04
      -6.83978142e-04 -1.77834314e-04 -1.36795634e-05 -1.36795634e-05
      6.97657699e-04 5.19823399e-04 2.18873014e-04 -6.70298585e-04
      -4.58265364e-04 -4.10386892e-05 1.36795634e-05 0. 4.65105142e-04
      6.56619028e-04 7.25016871e-04 -4.10386892e-05 -7.52376000e-05
      -2.39392350e-04 -4.30906250e-04</_>
    <_>
      -1.88460563e-05 3.20382940e-04 3.86344153e-04 3.20382940e-04
      3.20382940e-04 3.76921118e-04 3.39229009e-04 1.79037539e-04
      -1.88460563e-05 9.32879746e-04 7.91534374e-04 3.58075078e-04
      2.82690831e-04 6.69035013e-04 1.08364818e-03 8.85764603e-04 0.
      9.42302810e-04 3.67498084e-04 -1.13076334e-04 -2.35575702e-04
      1.50768450e-04 1.07422518e-03 1.11191731e-03 -9.42302813e-06
      9.23456741e-04 4.99420508e-04 -5.65381670e-05 -2.16729648e-04
      2.16729648e-04 1.07422518e-03 1.14018633e-03 -2.82690835e-05
      3.67498084e-04 -4.71151398e-05 -8.48072523e-05 -1.69614505e-04
      -1.50768450e-04 1.97883594e-04 4.05190192e-04 -2.82690835e-05
      -4.05190192e-04 -9.14033735e-04 -8.66918592e-04 -9.32879746e-04
      -7.25573162e-04 2.07306613e-04 3.95767187e-04 -2.82690835e-05
      -2.35575702e-04 -8.85764603e-04 -8.95187666e-04 -7.06727093e-04
      -3.10959935e-04 2.26152668e-04 9.42302795e-05 -4.71151398e-05
      2.92113866e-04 -1.31922396e-04 -7.53842251e-05 -1.22499361e-04
      -2.73267826e-04 -3.67498084e-04 -6.69035013e-04</_>
    <_>
      0. 4.02475824e-04 4.39064548e-04 4.14672075e-04 4.51260799e-04
      5.24438219e-04 4.02475824e-04 1.46354854e-04 0. 1.00009143e-03
      4.63457021e-04 -1.21962375e-05 -9.75699004e-05 2.68317235e-04
      9.87895182e-04 8.65932845e-04 1.21962375e-05 6.95185561e-04
      -8.53736594e-04 -1.32938987e-03 -1.52452965e-03 -1.35378237e-03
      4.14672075e-04 8.53736594e-04 -1.21962375e-05 1.01228768e-03
      1.82943564e-04 -2.56120984e-04 -6.22008112e-04 -1.00009143e-03
      3.41494655e-04 5.85419417e-04 0. 9.75698989e-04 1.14644633e-03
      1.36597862e-03 1.04887644e-03 -2.43924751e-05 3.29298404e-04
      5.36634470e-04 2.43924751e-05 3.65887136e-05 1.34158618e-04
      3.78083350e-04 7.31774271e-05 -7.68362952e-04 3.78083350e-04
      5.85419417e-04 -1.21962375e-05 2.43924751e-05 -3.65887128e-04
      -6.09811868e-05 4.87849502e-05 -2.56120984e-04 6.46400556e-04
      6.09811861e-04 -6.09811868e-05 5.48830663e-04 2.43924747e-04
      7.19578005e-04 5.97615610e-04 -2.31728511e-04 3.65887136e-05
      -9.75699004e-05</_>
    <_>
      0. 2.36248641e-04 -2.69998454e-05 -5.39996909e-05 2.83498375e-04
      3.10498202e-04 3.10498202e-04 1.88998907e-04 0. 6.74996118e-04
      -2.36248641e-04 -5.26496966e-04 3.17248167e-04 5.80496679e-04
      9.58494493e-04 8.09995341e-04 6.74996136e-06 6.74996118e-04
      -5.46746829e-04 -8.70744989e-04 -6.07496513e-05 2.02498835e-04
      9.11244773e-04 9.31494636e-04 6.74996136e-06 6.68246183e-04
      -4.25247563e-04 -8.03245406e-04 -4.72497268e-05 2.49748555e-04
      7.15495902e-04 7.55995628e-04 -6.74996136e-06 5.80496679e-04
      -4.04997663e-05 -6.07496513e-05 1.07999382e-04 1.07999382e-04
      3.37498059e-05 8.09995327e-05 0. 3.37498059e-05 -6.74996118e-04
      -6.34496333e-04 -5.46746829e-04 -4.11747635e-04 -1.34999227e-05
      2.02498832e-05 0. 1.55249101e-04 -6.81746053e-04 -6.81746053e-04
      2.36248641e-04 5.06247103e-04 3.23998131e-04 1.28249259e-04
      -6.74996136e-06 5.39996894e-04 -1.34999224e-04 -8.77494967e-05
      7.55995628e-04 6.34496333e-04 4.92747175e-04 1.75498993e-04</_>
    <_>
      0. 3.00434331e-04 3.43353546e-04 3.09018185e-04 3.00434331e-04
      3.34769691e-04 2.83266680e-04 1.28757572e-04 0. 8.58383835e-04
      7.12458568e-04 3.43353546e-04 2.66098999e-04 6.00868661e-04
      9.61389916e-04 7.72545463e-04 1.71676766e-05 8.66967661e-04
      3.26185866e-04 -8.58383864e-05 -2.06012119e-04 1.28757572e-04
      9.52806033e-04 9.78557626e-04 8.58383828e-06 8.49800010e-04
      4.46359598e-04 -3.43353531e-05 -1.88844439e-04 1.88844439e-04
      9.52806033e-04 1.00430904e-03 0. 7.46793929e-04 9.44222207e-04
      9.18470731e-04 -1.45925253e-04 -1.45925253e-04 -2.57515148e-05
      3.43353531e-05 0. 4.29191932e-05 1.54509093e-04 2.06012119e-04
      -8.41216184e-04 -6.69539382e-04 -1.71676766e-05 2.57515148e-05 0.
      1.97428279e-04 1.80260598e-04 1.80260598e-04 -6.35204022e-04
      -2.91850505e-04 0. -2.48931319e-04 -1.71676766e-05 6.78123208e-04
      8.66967661e-04 9.27054556e-04 -1.03006059e-04 -2.57515145e-04
      -5.40781824e-04 -9.44222207e-04</_>
    <_>
      1.91669096e-05 -9.58345481e-06 -4.79172741e-05 0. 2.87503663e-05
      2.87503663e-05 -2.87503663e-05 -6.70841837e-05 1.91669096e-05
      -1.62918732e-04 -4.40838921e-04 -3.73754738e-04 -3.64171283e-04
      -4.69589315e-04 -3.25837464e-04 -2.20419461e-04 9.58345481e-06
      -4.12088557e-04 -1.04459666e-03 -9.29595146e-04 -9.58345539e-04
      -1.21709879e-03 -7.66676385e-04 -4.60005860e-04 0. -1.43751822e-04
      -3.64171283e-04 -1.43751822e-04 -2.68336735e-04 -1.00626284e-03
      -8.24177114e-04 -6.99592230e-04 2.87503663e-05 3.92921647e-04
      9.48762055e-04 1.15959812e-03 9.96679300e-04 1.34168367e-04
      5.75007325e-05 9.58345481e-06 4.79172741e-05 4.40838921e-04
      1.03501312e-03 1.17876497e-03 1.00626284e-03 1.34168367e-04
      8.62510933e-05 5.75007325e-05 1.91669096e-05 2.58753280e-04
      6.13341108e-04 8.62510933e-04 7.57092959e-04 1.15001465e-04
      2.77920190e-04 3.83338192e-04 0. 1.34168367e-04 3.25837464e-04
      6.42091502e-04 5.94174198e-04 9.58345481e-05 4.02505102e-04
      6.03757682e-04</_>
    <_>
      2.19245358e-05 1.09622679e-05 -4.93302068e-04 -4.60415264e-04
      8.76981430e-05 6.57736091e-05 1.09622677e-04 9.86604136e-05
      2.19245358e-05 1.09622679e-05 -1.30450993e-03 -1.27162307e-03
      1.86358549e-04 1.64434023e-04 2.95981241e-04 2.85018963e-04
      1.09622679e-05 0. -1.31547218e-03 -1.28258532e-03 1.75396286e-04
      1.53471745e-04 2.30207632e-04 2.19245354e-04 2.19245358e-05
      1.09622679e-05 -1.27162307e-03 -1.23873632e-03 1.75396286e-04
      1.53471745e-04 -8.76981430e-05 -9.86604136e-05 2.19245358e-05
      5.15226566e-04 -1.09622679e-05 0. 3.72717099e-04 3.50792572e-04
      -1.75396286e-04 -3.39830294e-04 3.28868045e-05 5.26188873e-04
      -3.28868045e-05 -2.19245358e-05 1.97320827e-04 1.75396286e-04
      -2.63094436e-04 -4.27528459e-04 3.28868045e-05 5.26188873e-04
      -7.67358724e-05 -6.57736091e-05 1.20584946e-03 1.18392496e-03
      2.63094436e-04 9.86604136e-05 4.38490715e-05 5.37151122e-04
      -6.57736091e-05 -5.48113385e-05 1.37028354e-03 1.34835893e-03
      1.22777396e-03 1.06333999e-03</_>
    <_>
      3.21233529e-05 1.60616764e-05 -1.60616764e-05 3.21233529e-05
      1.60616764e-05 -1.60616764e-05 -4.81850293e-05 -6.42467057e-05
      3.21233529e-05 1.60616764e-05 -1.60616764e-05 3.21233529e-05
      1.60616764e-05 -1.60616764e-05 -4.81850293e-05 -6.42467057e-05
      3.21233529e-05 1.60616764e-05 -1.60616764e-05 3.21233529e-05
      1.60616764e-05 -1.60616764e-05 -4.81850293e-05 -6.42467057e-05
      3.21233529e-05 1.60616764e-05 -1.60616764e-05 3.21233529e-05
      1.60616764e-05 -1.60616764e-05 -4.81850293e-05 -6.42467057e-05
      4.81850293e-05 7.70960469e-04 1.84709288e-03 1.86315447e-03
      1.60616764e-05 -1.60616764e-05 -3.85480234e-04 -6.26405410e-04
      4.81850293e-05 7.70960469e-04 1.84709288e-03 1.86315447e-03
      1.60616764e-05 -1.60616764e-05 -3.85480234e-04 -6.26405410e-04
      4.81850293e-05 7.70960469e-04 1.84709288e-03 1.86315447e-03
      1.60616764e-05 -1.60616764e-05 -3.85480234e-04 -6.26405410e-04
      4.81850293e-05 7.70960469e-04 1.84709288e-03 1.86315447e-03
      1.60616764e-05 -1.60616764e-05 -3.85480234e-04 -6.26405410e-04</_>
    <_>
      0. 1.61198677e-05 -3.22397333e-04 -3.38517217e-04 4.02996666e-05
      2.41798007e-05 1.04779137e-04 1.28958942e-04 0. 1.45078811e-04
      -5.88375144e-04 -6.20614912e-04 4.43296361e-04 5.15835767e-04
      4.91655956e-04 3.94936738e-04 0. 3.46577144e-04 -8.86592679e-05
      -1.61198666e-04 9.34952288e-04 1.13645068e-03 8.14053288e-04
      5.48075477e-04 1.61198677e-05 1.28958942e-04 -6.28674810e-04
      -7.89873477e-04 3.54637072e-04 9.59132100e-04 6.28674810e-04
      5.15835767e-04 -8.05993386e-06 4.83596014e-05 -8.05993390e-04
      -9.75251955e-04 -5.64195332e-04 1.45078811e-04 -1.77318536e-04
      -2.57917884e-04 -1.61198677e-05 1.61198677e-05 -8.94652621e-04
      -1.00749172e-03 -7.01214245e-04 1.61198677e-05 -2.65977811e-04
      -3.62697028e-04 8.05993386e-06 1.69258608e-04 -5.72255289e-04
      -7.73753622e-04 2.49857956e-04 7.73753622e-04 -4.02996666e-05
      -2.49857956e-04 3.22397354e-05 2.82097666e-04 -3.22397333e-04
      -5.80315245e-04 5.07775811e-04 9.10772476e-04 5.64195332e-04
      2.74037739e-04</_>
    <_>
      0. 2.38841621e-05 4.77683243e-05 2.38841621e-05 -2.38841621e-05
      -4.77683243e-05 0. 3.58262441e-05 0. 2.14957458e-04 5.37393615e-04
      4.89625323e-04 4.65741148e-04 5.73219906e-04 3.70204507e-04
      2.26899530e-04 1.19420811e-05 5.25451556e-04 1.28974475e-03
      1.18226605e-03 1.20615016e-03 1.50470214e-03 9.19540238e-04
      5.25451556e-04 2.38841621e-05 1.91073297e-04 4.41857002e-04
      2.03015370e-04 3.46320332e-04 1.24197640e-03 9.91192763e-04
      8.24003597e-04 0. 8.35945684e-05 1.91073297e-04 -5.97104045e-05
      -1.23003428e-03 -1.79131210e-04 -3.58262419e-04 -4.77683236e-04
      -2.38841621e-05 2.38841621e-05 8.35945684e-05 -8.35945684e-05
      -1.24197640e-03 -1.79131210e-04 -3.94088682e-04 -5.37393615e-04
      1.19420811e-05 2.50783691e-04 6.09046139e-04 3.10494099e-04
      -9.31482296e-04 -1.55247049e-04 -6.32930314e-04 -9.43424413e-04
      3.58262441e-05 4.06030740e-04 9.67308530e-04 5.85161964e-04
      -7.28466955e-04 -1.31362889e-04 -7.88177364e-04 -1.21809228e-03</_>
    <_>
      0. 0. 2.89325224e-04 2.89325224e-04 -4.60290103e-05
      -4.60290103e-05 -8.54824466e-05 -8.54824466e-05 0. 0.
      7.75917608e-04 7.75917608e-04 -1.05209168e-04 -1.05209168e-04
      -1.97267189e-04 -1.97267189e-04 6.57557302e-06 6.57557302e-06
      7.82493211e-04 7.82493211e-04 -9.86335945e-05 -9.86335945e-05
      -1.57813760e-04 -1.57813760e-04 0. 0. 7.56190915e-04
      7.56190915e-04 -9.86335945e-05 -9.86335945e-05 3.28778660e-05
      3.28778660e-05 6.57557302e-06 6.57557302e-06 7.62766460e-04
      7.62766460e-04 -2.16993911e-04 -2.16993911e-04 -5.26045842e-05
      -5.26045842e-05 0. 0. 7.75917608e-04 7.75917608e-04
      -1.11784742e-04 -1.11784742e-04 0. 0. 0. 0. 8.02219904e-04
      8.02219904e-04 -7.16737472e-04 -7.16737472e-04 -3.15627520e-04
      -3.15627520e-04 -6.57557302e-06 -6.57557302e-06 7.95644359e-04
      7.95644359e-04 -8.15371051e-04 -8.15371051e-04 -8.94277939e-04
      -8.94277939e-04</_></support_vectors>
  <uncompressed_sv_total>15</uncompressed_sv_total>
  <uncompressed_support_vectors>
    <_>
      29. 63. 67. 65. 65. 68. 66. 49. 29. 132. 109. 68. 58. 92. 144.
      127. 29. 129. 71. 19. 4. 42. 136. 146. 27. 131. 65. 13. 1. 39.
      133. 146. 29. 128. 62. 15. 4. 39. 131. 149. 30. 128. 69. 20. 5.
      41. 136. 145. 28. 128. 112. 69. 58. 94. 143. 128. 28. 91. 122.
      135. 136. 124. 95. 51.</_>
    <_>
      29. 29. 69. 69. 67. 67. 66. 66. 28. 28. 52. 52. 143. 143. 146.
      146. 30. 30. 5. 5. 144. 144. 143. 143. 27. 27. 3. 3. 147. 147.
      145. 145. 30. 30. 0. 0. 144. 144. 145. 145. 28. 28. 2. 2. 148.
      148. 148. 148. 28. 28. 2. 2. 149. 149. 148. 148. 29. 29. 2. 2.
      147. 147. 146. 146.</_>
    <_>
      29. 61. 66. 65. 64. 66. 67. 49. 27. 131. 103. 75. 80. 113. 146.
      126. 30. 81. 28. 3. 25. 81. 147. 145. 28. 14. 9. 11. 55. 121. 141.
      98. 29. 7. 30. 84. 127. 126. 78. 7. 29. 41. 105. 137. 110. 52. 16.
      5. 29. 127. 144. 120. 83. 58. 59. 57. 27. 130. 143. 141. 138. 137.
      139. 141.</_>
    <_>
      29. 62. 68. 65. 64. 66. 66. 62. 27. 127. 97. 60. 62. 100. 141.
      139. 31. 39. 22. 13. 27. 72. 134. 143. 26. 6. 58. 94. 112. 128.
      130. 79. 29. 6. 44. 72. 90. 114. 138. 116. 29. 43. 22. 12. 20. 54.
      119. 145. 30. 129. 91. 55. 57. 92. 139. 137. 28. 94. 124. 135.
      138. 131. 108. 64.</_>
    <_>
      29. 20. 28. 56. 68. 70. 43. 25. 30. 0. 54. 133. 147. 146. 71. 16.
      28. 35. 132. 132. 138. 149. 70. 15. 30. 121. 136. 52. 132. 145.
      72. 13. 29. 138. 52. 29. 134. 144. 81. 37. 30. 140. 116. 115. 141.
      145. 135. 95. 29. 39. 37. 42. 139. 144. 93. 42. 29. 6. 9. 4. 132.
      143. 70. 13.</_>
    <_>
      27. 63. 66. 63. 61. 62. 63. 58. 29. 129. 122. 83. 59. 60. 62. 59.
      29. 127. 108. 75. 62. 58. 38. 17. 29. 130. 137. 131. 134. 137.
      128. 94. 28. 65. 51. 32. 29. 66. 138. 146. 29. 26. 15. 6. 4. 39.
      126. 144. 27. 130. 115. 80. 71. 98. 141. 139. 29. 83. 119. 134.
      139. 130. 97. 54.</_>
    <_>
      28. 60. 67. 66. 64. 63. 62. 34. 30. 124. 122. 82. 53. 48. 47. 24.
      28. 130. 71. 42. 43. 40. 30. 10. 30. 128. 122. 120. 129. 133. 125.
      95. 29. 132. 70. 26. 31. 74. 133. 147. 29. 132. 54. 14. 20. 51.
      109. 148. 28. 128. 118. 75. 60. 92. 140. 136. 30. 73. 114. 137.
      142. 130. 104. 56.</_>
    <_>
      30. 56. 62. 62. 61. 63. 66. 67. 28. 44. 46. 51. 59. 87. 141. 134.
      29. 6. 2. 24. 79. 128. 116. 56. 28. 6. 3. 70. 132. 121. 46. 15.
      29. 15. 55. 112. 130. 81. 1. 2. 29. 23. 91. 133. 117. 57. 3. 3.
      27. 29. 113. 144. 105. 41. 5. 2. 31. 30. 111. 139. 97. 34. 4. 7.</_>
    <_>
      30. 61. 66. 62. 63. 67. 65. 58. 28. 132. 120. 72. 55. 91. 147.
      134. 29. 131. 109. 52. 26. 65. 144. 144. 26. 115. 138. 125. 117.
      128. 132. 83. 30. 128. 125. 98. 91. 112. 135. 118. 30. 128. 76.
      27. 14. 44. 118. 142. 27. 131. 105. 61. 46. 77. 138. 146. 29. 97.
      125. 135. 138. 133. 109. 81.</_>
    <_>
      28. 63. 68. 64. 65. 69. 63. 45. 28. 128. 111. 68. 61. 100. 142.
